svm_type c_svc
kernel_type rbf
gamma 0.1
nr_class 2
total_sv 993
rho 0.888921
label 1 -1
probA -18.2146
probB -15.3941
nr_sv 466 527
SV
1 1:0.006129 2:-0.029258 3:-1 4:-1 5:-1 6:-1 7:-1 8:-1 9:-1 10:-1 
1 1:-0.20409 2:-0.12786 3:-1 4:-1 5:-1 6:-1 7:-1 8:-1 9:-1 10:-1 
1 1:0.044329 2:0.024797 3:-0.954 4:-1 5:-1 6:-1 7:-1 8:-1 9:-1 10:-1 
1 1:0.23997 2:0.25378 3:-1 4:-1 5:-1 6:-1 7:-1 8:-1 9:-0.9879 10:-1 
1 1:0.14286 2:0.30478 3:-1 4:-1 5:-1 6:-1 7:-1 8:-1 9:-1 10:-1 
1 1:-0.22857 2:0.062114 3:-1 4:-1 5:-1 6:-1 7:-1 8:-1 9:-1 10:-1 
1 1:0.12361 2:0.16632 3:-0.9616 4:-1 5:-1 6:-1 7:-0.94824 8:-1 9:-1 10:-1 
1 1:0.49107 2:0.62295 3:-1 4:-1 5:-1 6:-1 7:-1 8:-1 9:-1 10:-1 
1 1:0.53803 2:0.69902 3:-1 4:-1 5:-1 6:-1 7:-1 8:-1 9:-1 10:-1 
1 1:0.64706 2:0.66952 3:-1 4:-1 5:-1 6:-1 7:-1 8:-1 9:-1 10:-1 
1 1:0.031043 2:0.024927 3:-1 4:-1 5:-1 6:-1 7:-1 8:-1 9:-1 10:-1 
1 1:-0.37143 2:-0.24203 3:-1 4:-1 5:-1 6:-1 7:-1 8:-1 9:-1 10:-1 
1 1:0.19336 2:0.16186 3:-1 4:-1 5:-1 6:-1 7:-0.98625 8:-1 9:-1 10:-1 
1 1:0.40417 2:0.5068 3:-1 4:-1 5:-1 6:-1 7:-1 8:-1 9:-1 10:-1 
1 1:-0.4359 2:-0.539 3:-1 4:-1 5:-0.88622 6:-1 7:-1 8:-1 9:-1 10:-1 
1 1:-0.050414 2:0.11568 3:-1 4:-1 5:-1 6:-1 7:-1 8:-1 9:-1 10:-1 
1 1:-0.3604 2:-0.36144 3:-1 4:-1 5:-1 6:-1 7:-1 8:-1 9:-1 10:-0.93514 
1 1:-0.10084 2:-0.050164 3:-1 4:-1 5:-1 6:-1 7:-1 8:-1 9:-1 10:-1 
1 1:-0.12637 2:-0.14984 3:-1 4:-1 5:-1 6:-1 7:-1 8:-1 9:-0.75073 10:-1 
1 1:0.57143 2:0.76369 3:-1 4:-1 5:-0.77778 6:-1 7:-1 8:-1 9:-1 10:-1 
1 1:-0.58654 2:-0.6955 3:-1 4:-1 5:-1 6:-1 7:-1 8:-1 9:-1 10:-1 
1 1:-0.080586 2:-0.056579 3:-1 4:-1 5:-1 6:-1 7:-1 8:-1 9:-1 10:-1 
1 1:-0.37037 2:-0.43975 3:-1 4:-1 5:-1 6:-1 7:-1 8:-1 9:-1 10:-1 
1 1:0.28571 2:0.42865 3:-1 4:-1 5:-0.69556 6:-1 7:-1 8:-1 9:-1 10:-1 
1 1:-0.52329 2:-0.66063 3:-1 4:-0.98488 5:-0.976 6:-1 7:-1 8:-1 9:-1 10:-1 
1 1:0.016414 2:0.038669 3:-1 4:-1 5:-1 6:-1 7:-1 8:-1 9:-1 10:-1 
1 1:0.2119 2:0.20617 3:-1 4:-1 5:-1 6:-1 7:-1 8:-1 9:-1 10:-1 
1 1:0.3856 2:0.43477 3:-1 4:-1 5:-1 6:-1 7:-1 8:-1 9:-1 10:-1 
1 1:-0.033343 2:0.14303 3:-1 4:-1 5:-1 6:-1 7:-1 8:-1 9:-1 10:-1 
1 1:-0.0936 2:-0.065892 3:-1 4:-1 5:-1 6:-1 7:-1 8:-1 9:-1 10:-1 
1 1:-0.71764 2:-0.87037 3:-1 4:-1 5:-1 6:-1 7:-1 8:-1 9:-0.65266 10:-1 
1 1:-0.5407 2:-0.62842 3:-1 4:-1 5:-1 6:-1 7:-1 8:-1 9:-1 10:-1 
1 1:0.013457 2:-0.011706 3:-1 4:-1 5:-1 6:-1 7:-1 8:-1 9:-1 10:-1 
1 1:-0.36947 2:-0.41689 3:-1 4:-1 5:-1 6:-1 7:-1 8:-1 9:-1 10:-1 
1 1:-0.15307 2:-0.19494 3:-1 4:-1 5:-1 6:-1 7:-1 8:-1 9:-0.96133 10:-0.94886 
1 1:-0.11003 2:-0.025937 3:-1 4:-1 5:-1 6:-1 7:-1 8:-1 9:-1 10:-1 
1 1:-0.67551 2:-0.77059 3:-1 4:-1 5:-1 6:-1 7:-1 8:-1 9:-1 10:-1 
1 1:0.12087 2:0.16404 3:-1 4:-1 5:-1 6:-1 7:-1 8:-1 9:-1 10:-1 
1 1:-0.093171 2:0.005324 3:-1 4:-1 5:-1 6:-1 7:-1 8:-1 9:-1 10:-1 
1 1:0.061214 2:0.084811 3:-1 4:-1 5:-1 6:-1 7:-1 8:-1 9:-1 10:-1 
1 1:0.28571 2:0.42865 3:-1 4:-1 5:-1 6:-1 7:-1 8:-1 9:-1 10:-1 
1 1:0.28571 2:0.35916 3:-1 4:-1 5:-1 6:-1 7:-1 8:-1 9:-1 10:-1 
1 1:0.61316 2:0.59478 3:-1 4:-1 5:-1 6:-1 7:-1 8:-1 9:-1 10:-1 
1 1:-0.056829 2:-0.073479 3:-1 4:-1 5:-1 6:-1 7:-1 8:-1 9:-1 10:-1 
1 1:-0.65223 2:-0.81332 3:-1 4:-1 5:-1 6:-1 7:-1 8:-1 9:-1 10:-1 
1 1:0.17143 2:0.38335 3:-1 4:-1 5:-1 6:-1 7:-1 8:-1 9:-1 10:-1 
1 1:-0.40971 2:-0.43438 3:-1 4:-0.94708 5:-1 6:-1 7:-1 8:-1 9:-1 10:-1 
1 1:-0.71246 2:-0.81354 3:-1 4:-1 5:-1 6:-1 7:-1 8:-1 9:-1 10:-1 
1 1:-0.011671 2:0.058174 3:-0.9184 4:-1 5:-1 6:-1 7:-1 8:-1 9:-1 10:-1 
1 1:-0.061 2:-0.044237 3:-1 4:-1 5:-1 6:-1 7:-1 8:-1 9:-1 10:-1 
1 1:-0.062114 2:0.046842 3:-0.913 4:-0.7564 5:-1 6:-1 7:-1 8:-1 9:-1 10:-0.87571 
1 1:-0.1213 2:-0.080154 3:-1 4:-1 5:-1 6:-1 7:-1 8:-1 9:-1 10:-1 
1 1:-0.65683 2:-0.80088 3:-1 4:-1 5:-0.94889 6:-1 7:-1 8:-1 9:-1 10:-1 
1 1:0.52747 2:0.68023 3:-1 4:-1 5:-1 6:-1 7:-1 8:-1 9:-1 10:-1 
1 1:-0.28571 2:-0.13336 3:-1 4:-1 5:-1 6:-1 7:-1 8:-1 9:-1 10:-1 
1 1:-0.0264 2:-0.096501 3:-1 4:-1 5:-1 6:-1 7:-1 8:-1 9:-1 10:-1 
1 1:-0.17347 2:0.020238 3:-1 4:-1 5:-1 6:-1 7:-1 8:-1 9:-1 10:-1 
1 1:0.47514 2:0.60537 3:-1 4:-1 5:-1 6:-1 7:-1 8:-1 9:-1 10:-1 
1 1:-0.33696 2:-0.33812 3:-1 4:-1 5:-0.95156 6:-1 7:-1 8:-1 9:-1 10:-1 
1 1:0.14286 2:0.34483 3:-1 4:-1 5:-1 6:-1 7:-1 8:-1 9:-1 10:-1 
1 1:0 2:0.30478 3:-1 4:-1 5:-1 6:-1 7:-1 8:-1 9:-1 10:-1 
1 1:-0.22587 2:-0.31393 3:-1 4:-1 5:-1 6:-1 7:-1 8:-1 9:-1 10:-1 
1 1:0.16837 2:0.13421 3:-1 4:-1 5:-1 6:-1 7:-0.95175 8:-1 9:-1 10:-1 
1 1:-0.2449 2:-0.12792 3:-1 4:-1 5:-1 6:-1 7:-1 8:-1 9:-1 10:-1 
1 1:0.085714 2:0.2503 3:-1 4:-1 5:-1 6:-1 7:-1 8:-1 9:-1 10:-1 
1 1:-0.073171 2:-0.083834 3:-1 4:-1 5:-1 6:-1 7:-1 8:-1 9:-1 10:-1 
1 1:-0.2 2:-0.010404 3:-1 4:-1 5:-1 6:-1 7:-1 8:-1 9:-1 10:-1 
1 1:0.71429 2:0.82634 3:-1 4:-1 5:-1 6:-1 7:-1 8:-1 9:-1 10:-1 
1 1:-0.20409 2:-0.21096 3:-1 4:-1 5:-1 6:-1 7:-1 8:-1 9:-1 10:-1 
1 1:-0.0381 2:0.017242 3:-1 4:-1 5:-1 6:-1 7:-1 8:-1 9:-1 10:-1 
1 1:-0.20636 2:-0.1471 3:-1 4:-1 5:-1 6:-1 7:-1 8:-1 9:-1 10:-1 
1 1:-0.45266 2:-0.44222 3:-1 4:-1 5:-1 6:-1 7:-1 8:-1 9:-1 10:-1 
1 1:-0.0933 2:-0.10292 3:-1 4:-1 5:-1 6:-1 7:-1 8:-1 9:-1 10:-1 
1 1:0.10714 2:0.25574 3:-1 4:-1 5:-1 6:-1 7:-1 8:-1 9:-1 10:-1 
1 1:0.1044 2:0.14369 3:-1 4:-1 5:-1 6:-1 7:-1 8:-1 9:-1 10:-1 
1 1:-0.10204 2:0.008548 3:-1 4:-1 5:-1 6:-1 7:-1 8:-1 9:-1 10:-1 
1 1:0.28571 2:0.34483 3:-0.9558 4:-1 5:-1 6:-1 7:-1 8:-1 9:-1 10:-1 
1 1:-0.018643 2:-0.013856 3:-0.9566 4:-1 5:-1 6:-1 7:-1 8:-1 9:-0.7652 10:-1 
1 1:-0.081643 2:0.15498 3:-1 4:-1 5:-1 6:-1 7:-1 8:-1 9:-1 10:-1 
1 1:-0.31429 2:-0.36023 3:-1 4:-1 5:-1 6:-1 7:-1 8:-1 9:-1 10:-1 
1 1:-0.21429 2:0.046223 3:-1 4:-1 5:-1 6:-1 7:-1 8:-1 9:-1 10:-1 
1 1:0.029643 2:0.1347 3:-1 4:-1 5:-1 6:-1 7:-1 8:-1 9:-1 10:-1 
1 1:0.0989 2:0.12034 3:-1 4:-1 5:-1 6:-1 7:-1 8:-1 9:-1 10:-1 
1 1:-0.25266 2:-0.28071 3:-1 4:-1 5:-1 6:-1 7:-1 8:-1 9:-0.99158 10:-1 
1 1:-0.085714 2:0.035608 3:-1 4:-1 5:-1 6:-1 7:-1 8:-1 9:-1 10:-1 
1 1:-0.22361 2:-0.28504 3:-1 4:-1 5:-1 6:-1 7:-1 8:-1 9:-1 10:-1 
1 1:0.17857 2:0.2996 3:-1 4:-1 5:-1 6:-1 7:-1 8:-1 9:-1 10:-1 
1 1:-0.31797 2:-0.37176 3:-1 4:-1 5:-1 6:-1 7:-1 8:-1 9:-1 10:-1 
1 1:0.68864 2:0.72556 3:-1 4:-1 5:-1 6:-1 7:-1 8:-1 9:-1 10:-1 
1 1:0.036629 2:-0.02776 3:-1 4:-1 5:-1 6:-1 7:-1 8:-1 9:-0.77838 10:-1 
1 1:0.071429 2:0.13063 3:-1 4:-1 5:-1 6:-1 7:-1 8:-1 9:-1 10:-1 
1 1:-0.22857 2:-0.17739 3:-1 4:-1 5:-1 6:-1 7:-1 8:-1 9:-1 10:-1 
1 1:-0.076186 2:0.077973 3:-1 4:-1 5:-1 6:-1 7:-1 8:-1 9:-1 10:-1 
1 1:-0.32143 2:-0.023332 3:-1 4:-1 5:-1 6:-1 7:-1 8:-1 9:-1 10:-1 
1 1:-0.31456 2:-0.32975 3:-1 4:-1 5:-1 6:-1 7:-1 8:-1 9:-1 10:-1 
1 1:-0.23939 2:-0.2715 3:-1 4:-1 5:-1 6:-1 7:-0.96361 8:-1 9:-1 10:-1 
1 1:-0.081971 2:-0.025057 3:-1 4:-1 5:-1 6:-1 7:-1 8:-1 9:-0.89373 10:-1 
1 1:-0.23939 2:-0.25531 3:-1 4:-1 5:-1 6:-1 7:-1 8:-1 9:-1 10:-1 
1 1:-0.084243 2:-0.086244 3:-1 4:-1 5:-1 6:-1 7:-1 8:-1 9:-1 10:-1 
1 1:-0.44506 2:-0.51784 3:-1 4:-1 5:-1 6:-1 7:-1 8:-1 9:-1 10:-1 
1 1:0.26007 2:0.30842 3:-1 4:-1 5:-1 6:-1 7:-1 8:-1 9:-1 10:-1 
1 1:-0.091871 2:-0.23288 3:-1 4:-0.98908 5:-0.98267 6:-1 7:-1 8:-0.961 9:-1 10:-1 
1 1:0.098214 2:0.16247 3:-1 4:-1 5:-1 6:-1 7:-1 8:-1 9:-1 10:-1 
1 1:-0.51587 2:-0.56798 3:-1 4:-1 5:-1 6:-1 7:-1 8:-1 9:-1 10:-1 
1 1:-0.312 2:-0.34747 3:-1 4:-1 5:-1 6:-1 7:-1 8:-1 9:-1 10:-1 
1 1:-0.2551 2:-0.19741 3:-1 4:-1 5:-1 6:-1 7:-1 8:-1 9:-1 10:-1 
1 1:-0.25307 2:-0.25476 3:-1 4:-1 5:-0.74622 6:-1 7:-1 8:-1 9:-1 10:-1 
1 1:-0.1791 2:-0.2799 3:-1 4:-0.93924 5:-1 6:-1 7:-1 8:-1 9:-1 10:-1 
1 1:-0.38889 2:-0.34297 3:-1 4:-1 5:-1 6:-1 7:-1 8:-1 9:-1 10:-1 
1 1:-0.35831 2:-0.37466 3:-0.9344 4:-1 5:-1 6:-1 7:-1 8:-1 9:-1 10:-1 
1 1:0.15306 2:0.18934 3:-0.9796 4:-1 5:-1 6:-1 7:-1 8:-1 9:-1 10:-1 
1 1:-0.78823 2:-0.94129 3:-0.9922 4:-1 5:-1 6:-1 7:-1 8:-1 9:-1 10:-0.98886 
1 1:-0.29393 2:-0.2826 3:-1 4:-1 5:-1 6:-1 7:-1 8:-1 9:-1 10:-1 
1 1:0.12886 2:0.18452 3:-1 4:-1 5:-1 6:-1 7:-1 8:-1 9:-1 10:-1 
1 1:-0.56323 2:-0.65089 3:-1 4:-1 5:-1 6:-1 7:-1 8:-1 9:-1 10:-1 
1 1:-0.21429 2:0.036585 3:-1 4:-1 5:-1 6:-1 7:-1 8:-1 9:-1 10:-1 
1 1:0.55394 2:0.73129 3:-1 4:-1 5:-1 6:-1 7:-1 8:-1 9:-1 10:-1 
1 1:-0.18369 2:0.098813 3:-1 4:-1 5:-1 6:-1 7:-1 8:-1 9:-1 10:-1 
1 1:-0.59796 2:-0.65678 3:-1 4:-1 5:-1 6:-1 7:-1 8:-1 9:-1 10:-1 
1 1:-0.34976 2:-0.41152 3:-1 4:-1 5:-1 6:-1 7:-1 8:-1 9:-1 10:-1 
1 1:-0.22989 2:-0.28644 3:-1 4:-1 5:-1 6:-1 7:-1 8:-1 9:-1 10:-1 
1 1:-0.13893 2:-0.15043 3:-1 4:-1 5:-1 6:-1 7:-0.97897 8:-1 9:-1 10:-1 
1 1:-0.40409 2:-0.40777 3:-1 4:-1 5:-1 6:-1 7:-1 8:-1 9:-1 10:-1 
1 1:0.71429 2:0.76369 3:-1 4:-1 5:-0.96356 6:-1 7:-1 8:-1 9:-1 10:-1 
1 1:0.39703 2:0.51686 3:-0.974 4:-1 5:-1 6:-1 7:-1 8:-1 9:-1 10:-1 
1 1:0.025343 2:-0.010892 3:-1 4:-1 5:-1 6:-1 7:-1 8:-1 9:-1 10:-1 
1 1:-0.21511 2:-0.24496 3:-1 4:-1 5:-1 6:-1 7:-1 8:-1 9:-1 10:-1 
1 1:-0.36616 2:-0.44841 3:-1 4:-0.94568 5:-1 6:-1 7:-1 8:-1 9:-1 10:-1 
1 1:0.38624 2:0.66564 3:-1 4:-1 5:-1 6:-1 7:-1 8:-1 9:-1 10:-1 
1 1:0.85714 2:1 3:-1 4:-1 5:-1 6:-1 7:-1 8:-1 9:-1 10:-1 
1 1:-0.20497 2:-0.078038 3:-1 4:-1 5:-1 6:-1 7:-1 8:-1 9:-1 10:-1 
1 1:0.048957 2:0.023527 3:-1 4:-1 5:-1 6:-1 7:-1 8:-1 9:-1 10:-1 
1 1:0.42857 2:0.58508 3:-1 4:-1 5:-1 6:-1 7:-1 8:-1 9:-1 10:-1 
1 1:0.77143 2:0.85161 3:-1 4:-1 5:-1 6:-1 7:-1 8:-1 9:-1 10:-1 
1 1:-0.027471 2:0.10865 3:-1 4:-1 5:-1 6:-1 7:-1 8:-1 9:-1 10:-1 
1 1:-0.16616 2:-0.13024 3:-1 4:-1 5:-1 6:-1 7:-1 8:-1 9:-1 10:-1 
1 1:-0.22129 2:-0.23281 3:-1 4:-1 5:-1 6:-1 7:-1 8:-1 9:-1 10:-1 
1 1:-0.59047 2:-0.47717 3:-1 4:-1 5:-1 6:-1 7:-1 8:-1 9:-1 10:-1 
1 1:-0.59387 2:-0.70817 3:-1 4:-1 5:-0.93644 6:-1 7:-1 8:-1 9:-1 10:-1 
1 1:0.24397 2:0.29094 3:-1 4:-1 5:-1 6:-1 7:-1 8:-1 9:-1 10:-1 
1 1:-0.12857 2:0.37697 3:-1 4:-1 5:-1 6:-1 7:-1 8:-1 9:-1 10:-1 
1 1:-0.39903 2:-0.45505 3:-1 4:-1 5:-1 6:-1 7:-1 8:-1 9:-1 10:-1 
1 1:-0.46667 2:-0.54981 3:-1 4:-1 5:-1 6:-1 7:-1 8:-1 9:-1 10:-1 
1 1:-0.19776 2:-0.25681 3:-1 4:-1 5:-1 6:-1 7:-1 8:-1 9:-1 10:-1 
1 1:0.10714 2:0.17123 3:-0.875 4:-1 5:-1 6:-1 7:-1 8:-1 9:-1 10:-1 
1 1:0.28571 2:0.3658 3:-0.923 4:-0.94624 5:-1 6:-1 7:-1 8:-1 9:-1 10:-1 
1 1:-0.39286 2:-0.39937 3:-1 4:-1 5:-1 6:-1 7:-1 8:-1 9:-1 10:-1 
1 1:-0.49534 2:-0.56805 3:-1 4:-1 5:-1 6:-1 7:-1 8:-1 9:-1 10:-1 
1 1:0.684 2:0.7126 3:-1 4:-1 5:-1 6:-1 7:-1 8:-1 9:-1 10:-1 
1 1:-0.54546 2:-0.48996 3:-1 4:-1 5:-1 6:-1 7:-1 8:-1 9:-1 10:-1 
1 1:0.23939 2:0.2514 3:-1 4:-1 5:-1 6:-1 7:-0.99461 8:-1 9:-1 10:-1 
1 1:0.32551 2:0.27084 3:-1 4:-1 5:-1 6:-1 7:-1 8:-1 9:-1 10:-1 
1 1:-0.2381 2:-0.15271 3:-1 4:-1 5:-1 6:-1 7:-1 8:-1 9:-1 10:-1 
1 1:0.19917 2:0.18344 3:-1 4:-1 5:-1 6:-1 7:-1 8:-1 9:-1 10:-1 
1 1:0.20604 2:0.28849 3:-0.9872 4:-1 5:-1 6:-1 7:-1 8:-1 9:-1 10:-1 
1 1:-0.18767 2:-0.14649 3:-1 4:-1 5:-1 6:-1 7:-1 8:-1 9:-1 10:-1 
1 1:-0.21904 2:-0.087253 3:-1 4:-1 5:-1 6:-1 7:-1 8:-1 9:-1 10:-1 
1 1:0.030814 2:0.11142 3:-1 4:-1 5:-1 6:-1 7:-1 8:-1 9:-1 10:-1 
1 1:0.97803 2:0.96245 3:-1 4:-1 5:-1 6:-1 7:-1 8:-1 9:-1 10:-1 
1 1:-0.057143 2:0.13681 3:-1 4:-1 5:-1 6:-1 7:-1 8:-1 9:-1 10:-1 
1 1:0.1137 2:0.28827 3:-1 4:-1 5:-1 6:-1 7:-1 8:-1 9:-1 10:-1 
1 1:-0.67857 2:-0.75376 3:-1 4:-1 5:-1 6:-1 7:-1 8:-1 9:-1 10:-1 
1 1:0.051329 2:0.032905 3:-1 4:-1 5:-0.96533 6:-1 7:-0.99461 8:-1 9:-0.99568 10:-1 
1 1:-0.18429 2:-0.18865 3:-1 4:-1 5:-1 6:-1 7:-1 8:-1 9:-1 10:-1 
1 1:-0.27143 2:-0.13883 3:-1 4:-1 5:-1 6:-1 7:-1 8:-1 9:-1 10:-1 
1 1:0.24223 2:0.26625 3:-1 4:-0.93924 5:-1 6:-1 7:-1 8:-1 9:-1 10:-1 
1 1:-0.3318 2:-0.32207 3:-1 4:-1 5:-1 6:-1 7:-1 8:-1 9:-1 10:-1 
1 1:-0.11557 2:-0.12903 3:-1 4:-1 5:-1 6:-1 7:-1 8:-1 9:-1 10:-1 
1 1:-0.18894 2:-0.24678 3:-1 4:-1 5:-1 6:-1 7:-1 8:-1 9:-1 10:-1 
1 1:-0.55919 2:-0.64366 3:-1 4:-1 5:-1 6:-1 7:-1 8:-1 9:-1 10:-1 
1 1:0.026614 2:0.061072 3:-1 4:-1 5:-1 6:-1 7:-1 8:-1 9:-1 10:-1 
1 1:0.27413 2:0.36782 3:-1 4:-1 5:-1 6:-1 7:-1 8:-1 9:-1 10:-1 
1 1:0.017629 2:-0.021834 3:-1 4:-1 5:-1 6:-1 7:-1 8:-1 9:-1 10:-1 
1 1:-0.18076 2:-0.027011 3:-1 4:-1 5:-1 6:-1 7:-1 8:-1 9:-1 10:-1 
1 1:0.25947 2:0.31614 3:-1 4:-1 5:-1 6:-1 7:-1 8:-1 9:-1 10:-1 
1 1:0 2:0.25886 3:-1 4:-1 5:-1 6:-1 7:-1 8:-1 9:-1 10:-1 
1 1:0.19304 2:0.24333 3:-1 4:-1 5:-1 6:-1 7:-1 8:-1 9:-1 10:-1 
1 1:0.71429 2:0.76369 3:-1 4:-1 5:-1 6:-1 7:-1 8:-1 9:-1 10:-1 
1 1:0.20169 2:0.19699 3:-1 4:-1 5:-1 6:-1 7:-0.97358 8:-1 9:-1 10:-1 
1 1:-0.46123 2:-0.4163 3:-1 4:-1 5:-1 6:-1 7:-1 8:-1 9:-1 10:-1 
1 1:-0.14556 2:-0.091617 3:-1 4:-1 5:-1 6:-1 7:-1 8:-1 9:-1 10:-1 
1 1:-0.28571 2:-0.12887 3:-1 4:-1 5:-1 6:-1 7:-1 8:-1 9:-1 10:-1 
1 1:0.11487 2:0.15857 3:-0.9794 4:-1 5:-1 6:-1 7:-1 8:-1 9:-1 10:-1 
1 1:-0.13166 2:-0.20132 3:-1 4:-1 5:-1 6:-1 7:-1 8:-1 9:-1 10:-1 
1 1:0.27067 2:0.37808 3:-1 4:-1 5:-1 6:-1 7:-1 8:-1 9:-1 10:-1 
1 1:-0.31036 2:-0.31129 3:-1 4:-1 5:-0.94889 6:-1 7:-1 8:-1 9:-1 10:-1 
1 1:-0.0497 2:0.15788 3:-1 4:-1 5:-1 6:-1 7:-1 8:-1 9:-1 10:-1 
1 1:0.42509 2:0.51907 3:-1 4:-1 5:-1 6:-1 7:-1 8:-1 9:-1 10:-1 
1 1:-0.48413 2:-0.45186 3:-1 4:-1 5:-1 6:-1 7:-1 8:-1 9:-1 10:-1 
1 1:-0.14286 2:-0.068692 3:-1 4:-1 5:-1 6:-1 7:-1 8:-1 9:-1 10:-1 
1 1:-0.40616 2:-0.4008 3:-1 4:-1 5:-1 6:-1 7:-1 8:-1 9:-1 10:-1 
1 1:-0.21429 2:-0.06905 3:-1 4:-1 5:-1 6:-1 7:-1 8:-1 9:-1 10:-1 
1 1:-0.079086 2:-0.084713 3:-1 4:-1 5:-1 6:-1 7:-1 8:-1 9:-1 10:-1 
1 1:0.66577 2:0.74174 3:-1 4:-1 5:-1 6:-1 7:-1 8:-1 9:-0.95917 10:-1 
1 1:-0.78096 2:-0.95838 3:-0.945 4:-1 5:-1 6:-1 7:-1 8:-1 9:-1 10:-1 
1 1:-0.22857 2:0.035347 3:-1 4:-1 5:-1 6:-1 7:-1 8:-1 9:-1 10:-1 
1 1:0.11826 2:0.054364 3:-1 4:-1 5:-1 6:-1 7:-1 8:-1 9:-1 10:-1 
1 1:-0.41904 2:-0.38097 3:-1 4:-1 5:-1 6:-1 7:-1 8:-1 9:-1 10:-1 
1 1:-0.40723 2:-0.4756 3:-1 4:-1 5:-1 6:-1 7:-1 8:-1 9:-1 10:-1 
1 1:0.11173 2:0.1446 3:-1 4:-1 5:-1 6:-1 7:-1 8:-1 9:-1 10:-1 
1 1:-0.26823 2:-0.31969 3:-1 4:-1 5:-1 6:-1 7:-1 8:-1 9:-1 10:-1 
1 1:0.051286 2:0.073381 3:-1 4:-1 5:-1 6:-1 7:-1 8:-1 9:-1 10:-1 
1 1:0.26423 2:0.32477 3:-1 4:-1 5:-1 6:-1 7:-1 8:-1 9:-1 10:-1 
1 1:-0.25807 2:-0.33578 3:-1 4:-1 5:-1 6:-1 7:-1 8:-1 9:-1 10:-1 
1 1:-0.42063 2:-0.38736 3:-1 4:-1 5:-1 6:-1 7:-1 8:-1 9:-0.76002 10:-1 
1 1:-0.38263 2:-0.45473 3:-1 4:-1 5:-1 6:-1 7:-1 8:-1 9:-0.9069 10:-1 
1 1:0.14286 2:0.34483 3:-1 4:-1 5:-0.596 6:-1 7:-1 8:-1 9:-1 10:-1 
1 1:-0.010329 2:-0.079568 3:-1 4:-1 5:-1 6:-1 7:-0.99461 8:-1 9:-0.99568 10:-1 
1 1:0.20289 2:0.18533 3:-1 4:-1 5:-1 6:-1 7:-1 8:-1 9:-1 10:-1 
1 1:-0.691 2:-0.83204 3:-0.9892 4:-1 5:-1 6:-1 7:-1 8:-1 9:-1 10:-1 
1 1:0.1724 2:0.30132 3:-1 4:-1 5:-1 6:-1 7:-1 8:-1 9:-1 10:-1 
1 1:0.17764 2:0.13356 3:-1 4:-1 5:-1 6:-1 7:-1 8:-1 9:-1 10:-1 
1 1:-0.55181 2:-0.59449 3:-0.9608 4:-1 5:-1 6:-1 7:-1 8:-1 9:-1 10:-1 
1 1:0.17084 2:0.15665 3:-1 4:-1 5:-1 6:-1 7:-1 8:-1 9:-1 10:-1 
1 1:-0.20409 2:-0.01239 3:-1 4:-1 5:-1 6:-1 7:-1 8:-1 9:-1 10:-1 
1 1:0.41043 2:0.54542 3:-1 4:-0.95548 5:-1 6:-1 7:-1 8:-1 9:-1 10:-1 
1 1:0.1395 2:0.072893 3:-1 4:-1 5:-1 6:-1 7:-1 8:-1 9:-1 10:-1 
1 1:-0.20634 2:-0.20139 3:-1 4:-1 5:-1 6:-1 7:-1 8:-1 9:-1 10:-1 
1 1:-0.70644 2:-0.84024 3:-1 4:-1 5:-1 6:-1 7:-1 8:-1 9:-1 10:-1 
1 1:-0.064929 2:0.12105 3:-1 4:-1 5:-1 6:-1 7:-1 8:-1 9:-1 10:-1 
1 1:-0.15904 2:-0.14678 3:-1 4:-1 5:-1 6:-1 7:-1 8:-1 9:-1 10:-1 
1 1:-0.048986 2:0.043423 3:-1 4:-1 5:-1 6:-1 7:-1 8:-1 9:-1 10:-1 
1 1:-0.42857 2:-0.46831 3:-1 4:-1 5:-1 6:-1 7:-1 8:-1 9:-1 10:-1 
1 1:-0.34811 2:-0.32607 3:-1 4:-1 5:-1 6:-1 7:-1 8:-1 9:-1 10:-1 
1 1:-0.69313 2:-0.75379 3:-1 4:-1 5:-1 6:-1 7:-1 8:-1 9:-1 10:-1 
1 1:-0.2469 2:-0.26326 3:-1 4:-1 5:-1 6:-1 7:-1 8:-1 9:-1 10:-1 
1 1:-0.47813 2:-0.54636 3:-1 4:-1 5:-1 6:-1 7:-1 8:-1 9:-1 10:-1 
1 1:0.079371 2:0.2503 3:-1 4:-1 5:-1 6:-1 7:-1 8:-1 9:-1 10:-1 
1 1:-0.40137 2:-0.41487 3:-1 4:-1 5:-1 6:-1 7:-1 8:-1 9:-1 10:-1 
1 1:-0.578 2:-0.60901 3:-1 4:-1 5:-1 6:-1 7:-1 8:-1 9:-1 10:-1 
1 1:-0.10714 2:-0.082857 3:-1 4:-1 5:-1 6:-1 7:-1 8:-1 9:-1 10:-1 
1 1:-0.11904 2:-0.025188 3:-1 4:-1 5:-1 6:-1 7:-1 8:-1 9:-1 10:-1 
1 1:-0.081643 2:0.054397 3:-1 4:-1 5:-1 6:-1 7:-1 8:-1 9:-1 10:-1 
1 1:-0.042857 2:0.11653 3:-1 4:-1 5:-1 6:-1 7:-1 8:-1 9:-1 10:-1 
1 1:0 2:0.3658 3:-1 4:-1 5:-1 6:-1 7:-1 8:-1 9:-1 10:-1 
1 1:-0.48249 2:-0.53347 3:-1 4:-1 5:-1 6:-1 7:-1 8:-1 9:-1 10:-1 
1 1:-0.49107 2:-0.47205 3:-1 4:-1 5:-1 6:-1 7:-1 8:-1 9:-1 10:-1 
1 1:-0.31633 2:-0.2502 3:-1 4:-1 5:-1 6:-1 7:-1 8:-1 9:-1 10:-1 
1 1:-0.0381 2:0.20692 3:-1 4:-1 5:-1 6:-1 7:-1 8:-1 9:-1 10:-1 
1 1:-0.40723 2:-0.42793 3:-1 4:-1 5:-1 6:-1 7:-1 8:-1 9:-1 10:-1 
1 1:-0.52381 2:-0.49201 3:-1 4:-1 5:-1 6:-1 7:-1 8:-1 9:-1 10:-1 
1 1:-0.14697 2:-0.094612 3:-1 4:-1 5:-1 6:-1 7:-1 8:-1 9:-1 10:-1 
1 1:-0.092929 2:-0.16254 3:-1 4:-1 5:-1 6:-1 7:-1 8:-1 9:-1 10:-1 
1 1:-0.38526 2:-0.47456 3:-1 4:-1 5:-1 6:-1 7:-1 8:-1 9:-1 10:-1 
1 1:-0.13393 2:-0.071786 3:-1 4:-1 5:-1 6:-1 7:-1 8:-1 9:-1 10:-1 
1 1:-0.39593 2:-0.35202 3:-1 4:-1 5:-1 6:-1 7:-1 8:-1 9:-1 10:-1 
1 1:0.40061 2:0.47322 3:-1 4:-1 5:-1 6:-1 7:-1 8:-1 9:-1 10:-1 
1 1:0 2:0.20946 3:-1 4:-1 5:-1 6:-1 7:-1 8:-1 9:-1 10:-1 
1 1:0.066843 2:0.056839 3:-1 4:-1 5:-1 6:-1 7:-1 8:-1 9:-1 10:-1 
1 1:0 2:0.21177 3:-1 4:-1 5:-1 6:-1 7:-1 8:-1 9:-1 10:-1 
1 1:0.026786 2:0.11057 3:-1 4:-1 5:-1 6:-1 7:-1 8:-1 9:-1 10:-1 
1 1:-0.53061 2:-0.41135 3:-1 4:-1 5:-1 6:-1 7:-1 8:-1 9:-1 10:-1 
1 1:-0.017857 2:-0.03919 3:-1 4:-1 5:-1 6:-1 7:-1 8:-1 9:-0.96133 10:-1 
1 1:-0.0245 2:0.04427 3:-1 4:-1 5:-1 6:-1 7:-1 8:-1 9:-1 10:-1 
1 1:0.38783 2:0.34509 3:-1 4:-1 5:-1 6:-1 7:-1 8:-1 9:-1 10:-1 
1 1:0.42857 2:0.76369 3:-1 4:-1 5:-1 6:-1 7:-1 8:-1 9:-1 10:-1 
1 1:0.14286 2:0.45255 3:-1 4:-1 5:-1 6:-1 7:-1 8:-1 9:-1 10:-1 
1 1:-0.44007 2:-0.53044 3:-1 4:-1 5:-1 6:-1 7:-1 8:-1 9:-1 10:-1 
1 1:0.23809 2:0.27999 3:-1 4:-1 5:-1 6:-1 7:-1 8:-1 9:-1 10:-1 
1 1:0.19211 2:0.27153 3:-1 4:-1 5:-1 6:-1 7:-1 8:-1 9:-1 10:-1 
1 1:-0.65026 2:-0.74278 3:-1 4:-1 5:-1 6:-1 7:-1 8:-1 9:-1 10:-1 
1 1:-0.020171 2:-0.050717 3:-1 4:-1 5:-1 6:-1 7:-1 8:-1 9:-1 10:-1 
1 1:-0.15179 2:-0.091454 3:-0.75 4:-1 5:-1 6:-1 7:-1 8:-1 9:-1 10:-1 
1 1:0 2:0.36466 3:-1 4:-1 5:-1 6:-1 7:-1 8:-1 9:-1 10:-1 
1 1:0.40816 2:0.48078 3:-1 4:-1 5:-1 6:-1 7:-0.9229 8:-1 9:-1 10:-1 
1 1:0.25237 2:0.27364 3:-1 4:-1 5:-1 6:-1 7:-1 8:-1 9:-1 10:-1 
1 1:0.10884 2:0.27482 3:-1 4:-1 5:-1 6:-1 7:-1 8:-1 9:-1 10:-1 
1 1:0.46667 2:0.60442 3:-1 4:-1 5:1.6667 6:-1 7:-1 8:-1 9:-1 10:-1 
1 1:-0.6449 2:-0.71878 3:-1 4:-1 5:-1 6:-1 7:-1 8:-1 9:-1 10:-1 
1 1:-0.42694 2:-0.4447 3:-1 4:-1 5:-1 6:-1 7:-1 8:-1 9:-1 10:-1 
1 1:0.3223 2:0.37049 3:-1 4:-1 5:-1 6:-1 7:-1 8:-0.878 9:-1 10:-1 
1 1:0.0306 2:0.073218 3:-1 4:-1 5:-1 6:-1 7:-1 8:-1 9:-1 10:-1 
1 1:-0.070029 2:-0.056123 3:-1 4:-1 5:-1 6:-1 7:-1 8:-1 9:-1 10:-1 
1 1:0.23906 2:0.27925 3:-1 4:-1 5:-1 6:-1 7:-1 8:-1 9:-1 10:-1 
1 1:-0.3381 2:-0.40357 3:-1 4:-1 5:-1 6:-1 7:-1 8:-1 9:-1 10:-1 
1 1:0.40126 2:0.36225 3:-1 4:-1 5:-1 6:-1 7:-1 8:-1 9:-1 10:-1 
1 1:-0.46327 2:-0.58156 3:-1 4:-1 5:-1 6:-1 7:-1 8:-1 9:-1 10:-1 
1 1:0.14286 2:0.3658 3:-0.913 4:-1 5:-1 6:-1 7:-1 8:-1 9:-1 10:-1 
1 1:-0.57143 2:-0.642 3:-1 4:-1 5:-1 6:-1 7:-1 8:-1 9:-1 10:-1 
1 1:0.39764 2:0.47169 3:-1 4:-1 5:-1 6:-1 7:-1 8:-1 9:-1 10:-1 
1 1:-0.062114 2:0.046842 3:-1 4:-1 5:-1 6:-1 7:-1 8:-1 9:-1 10:-1 
1 1:0 2:0.42865 3:-1 4:-1 5:-1 6:-1 7:-1 8:-1 9:-1 10:-1 
1 1:0.25569 2:0.28374 3:-1 4:-1 5:-1 6:-1 7:-1 8:-1 9:-1 10:-1 
1 1:0.27619 2:0.48648 3:-1 4:-1 5:-1 6:-1 7:-0.82019 8:-1 9:-1 10:-1 
1 1:0.40154 2:0.47427 3:-1 4:-1 5:-1 6:-1 7:-1 8:-1 9:-1 10:-1 
1 1:0.64146 2:0.71436 3:-1 4:-1 5:-1 6:-1 7:-0.97358 8:-1 9:-1 10:-1 
1 1:0.51786 2:0.68192 3:-0.6666 4:-1 5:-1 6:-1 7:-1 8:-1 9:-1 10:-1 
1 1:-0.55714 2:-0.59869 3:-1 4:-1 5:-1 6:-1 7:-1 8:-1 9:-1 10:-1 
1 1:-0.040814 2:0.014377 3:-1 4:-1 5:-1 6:-1 7:-1 8:-1 9:-1 10:-1 
1 1:-0.71154 2:-0.82875 3:-0.9616 4:-1 5:-1 6:-1 7:-1 8:-1 9:-1 10:-1 
1 1:-0.46123 2:-0.51328 3:-1 4:-1 5:-1 6:-1 7:-1 8:-1 9:-1 10:-1 
1 1:-0.11051 2:-0.025481 3:-1 4:-1 5:-1 6:-1 7:-1 8:-1 9:-1 10:-1 
1 1:-0.41051 2:-0.46603 3:-1 4:-1 5:-1 6:-1 7:-1 8:-1 9:-1 10:-1 
1 1:0.11836 2:0.21324 3:-1 4:-1 5:-1 6:-1 7:-1 8:-1 9:-1 10:-1 
1 1:-0.28571 2:-0.13818 3:-1 4:-1 5:-1 6:-1 7:-1 8:-1 9:-1 10:-1 
1 1:0.14286 2:0.42865 3:-1 4:-1 5:-1 6:-1 7:-1 8:-1 9:-1 10:-1 
1 1:0.073257 2:0.15671 3:-1 4:-1 5:-1 6:-1 7:-0.96549 8:-1 9:-1 10:-1 
1 1:0.14286 2:0.3658 3:-1 4:-1 5:-1 6:-1 7:-1 8:-1 9:-1 10:-1 
1 1:-0.38347 2:-0.32549 3:-1 4:-1 5:-1 6:-1 7:-1 8:-1 9:-1 10:-1 
1 1:0.078571 2:0.057653 3:-0.9666 4:-1 5:-1 6:-1 7:-1 8:-1 9:-1 10:-1 
1 1:0.13004 2:0.23975 3:-1 4:-1 5:-1 6:-1 7:-1 8:-1 9:-1 10:-1 
1 1:-0.2 2:-0.058272 3:-1 4:-1 5:-1 6:-1 7:-1 8:-1 9:-1 10:-1 
1 1:0.28571 2:0.34483 3:-1 4:-1 5:-1 6:-1 7:-1 8:-1 9:-1 10:-1 
1 1:-0.30476 2:-0.34584 3:-0.9666 4:-1 5:-1 6:-1 7:-1 8:-1 9:-1 10:-1 
1 1:-0.36026 2:-0.34131 3:-1 4:-1 5:-1 6:-1 7:-1 8:-1 9:-1 10:-1 
1 1:0.20714 2:0.35525 3:-1 4:-1 5:-1 6:-1 7:-1 8:-1 9:-1 10:-1 
1 1:-0.34286 2:-0.1446 3:-1 4:-1 5:-1 6:-1 7:-1 8:-1 9:-1 10:-1 
1 1:-0.53203 2:-0.58316 3:-1 4:-1 5:-1 6:-1 7:-1 8:-1 9:-1 10:-1 
1 1:-0.14286 2:-0.07299 3:-1 4:-1 5:-1 6:-1 7:-0.90026 8:-1 9:-1 10:-1 
1 1:-0.20259 2:-0.30435 3:-0.9836 4:-1 5:-1 6:-1 7:-1 8:-1 9:-0.98229 10:-1 
1 1:-0.34976 2:-0.37469 3:-1 4:-1 5:-1 6:-1 7:-1 8:-1 9:-1 10:-1 
1 1:-0.33117 2:-0.37498 3:-1 4:-1 5:-1 6:-1 7:-1 8:-1 9:-1 10:-1 
1 1:-0.16071 2:-0.15762 3:-1 4:-1 5:-1 6:-1 7:-1 8:-1 9:-1 10:-1 
1 1:-0.056871 2:-0.080675 3:-1 4:-1 5:-1 6:-1 7:-1 8:-1 9:-1 10:-1 
1 1:-0.17374 2:-0.23024 3:-1 4:-1 5:-1 6:-1 7:-1 8:-1 9:-1 10:-1 
1 1:0.4105 2:0.55297 3:-1 4:-1 5:-1 6:-1 7:-1 8:-1 9:-1 10:-1 
1 1:-0.44899 2:-0.49306 3:-1 4:-1 5:-1 6:-1 7:-0.9229 8:-1 9:-1 10:-1 
1 1:-0.13747 2:-0.043097 3:-1 4:-1 5:-1 6:-1 7:-1 8:-1 9:-1 10:-1 
1 1:-0.15264 2:-0.1389 3:-1 4:-1 5:-0.87822 6:-1 7:-1 8:-1 9:-1 10:-1 
1 1:-0.056129 2:-0.011544 3:-0.9642 4:-1 5:-0.92044 6:-1 7:-1 8:-1 9:-1 10:-1 
1 1:-0.47784 2:-0.51673 3:-1 4:-1 5:-0.94889 6:-1 7:-1 8:-1 9:-1 10:-1 
1 1:-0.15634 2:-0.057328 3:-1 4:-1 5:-1 6:-1 7:-1 8:-1 9:-1 10:-1 
1 1:0.057143 2:0.15925 3:-1 4:-1 5:-1 6:-1 7:-1 8:-1 9:-1 10:-1 
1 1:-0.2212 2:-0.21985 3:-1 4:-1 5:-1 6:-1 7:-1 8:-1 9:-1 10:-1 
1 1:0.25073 2:0.28351 3:-1 4:-0.31429 5:-1 6:-1 7:-1 8:-1 9:-1 10:-1 
1 1:-0.42857 2:-0.33431 3:-1 4:-1 5:-1 6:-1 7:-1 8:-1 9:-1 10:-1 
1 1:0.14286 2:0.094319 3:-1 4:-1 5:-1 6:-1 7:-1 8:-1 9:-1 10:-1 
1 1:-0.1248 2:-0.088132 3:-1 4:-1 5:-1 6:-1 7:-1 8:-1 9:-1 10:-1 
1 1:0.096943 2:0.054429 3:-1 4:-1 5:-1 6:-1 7:-1 8:-1 9:-1 10:-1 
1 1:-0.67507 2:-0.84243 3:-1 4:-0.98908 5:-1 6:-1 7:-0.98949 8:-1 9:-1 10:-1 
1 1:-0.18046 2:-0.16381 3:-1 4:-0.85272 5:-1 6:-1 7:-1 8:-1 9:-1 10:-1 
1 1:-0.63121 2:-0.75939 3:-1 4:-1 5:-1 6:-1 7:-1 8:-1 9:-1 10:-1 
1 1:0.71429 2:0.76369 3:-1 4:-1 5:-1 6:-1 7:-0.92182 8:-1 9:-1 10:-1 
1 1:-0.1337 2:-0.18247 3:-1 4:-1 5:-1 6:-1 7:-1 8:-1 9:-1 10:-1 
1 1:0.17857 2:0.26326 3:-1 4:-1 5:-1 6:-1 7:-1 8:-1 9:-1 10:-1 
1 1:0.19576 2:0.38325 3:-1 4:-1 5:-1 6:-1 7:-1 8:-1 9:-1 10:-1 
1 1:0.57143 2:0.82634 3:-1 4:-1 5:-1 6:-1 7:-1 8:-1 9:-1 10:-1 
1 1:-0.57841 2:-0.74939 3:-1 4:-1 5:-1 6:-1 7:-0.98544 8:-1 9:-1 10:-1 
1 1:-0.047614 2:0.19087 3:-1 4:-1 5:-1 6:-1 7:-1 8:-1 9:-1 10:-1 
1 1:0.077543 2:0.18966 3:-1 4:-1 5:-1 6:-1 7:-1 8:-1 9:-1 10:-1 
1 1:0.044914 2:0.061268 3:-0.996 4:-1 5:-1 6:-1 7:-0.99461 8:-1 9:-1 10:-1 
1 1:-0.45714 2:-0.54412 3:-1 4:-1 5:-1 6:-1 7:-1 8:-1 9:-1 10:-1 
1 1:-0.43633 2:-0.60755 3:-1 4:-1 5:-0.976 6:-1 7:-1 8:-1 9:-1 10:-1 
1 1:0.14286 2:0.20946 3:-1 4:-1 5:-1 6:-1 7:-1 8:-1 9:-1 10:-1 
1 1:-0.32601 2:-0.26863 3:-1 4:-1 5:-1 6:-1 7:-1 8:-1 9:-1 10:-1 
1 1:-0.20953 2:-0.12516 3:-1 4:-1 5:-1 6:-1 7:-1 8:-1 9:-0.85592 10:-1 
1 1:0.001157 2:-0.020857 3:-0.9344 4:-1 5:-1 6:-1 7:-1 8:-1 9:-1 10:-1 
1 1:-0.67653 2:-0.80837 3:-1 4:-1 5:-1 6:-1 7:-1 8:-1 9:-1 10:-1 
1 1:-0.30446 2:-0.43109 3:-1 4:-1 5:-1 6:-1 7:-1 8:-1 9:-1 10:-1 
1 1:0 2:0.30478 3:-1 4:-1 5:-1 6:-1 7:-1 8:-1 9:-0.85592 10:-1 
1 1:-0.18857 2:-0.24251 3:-1 4:-1 5:-1 6:-1 7:-1 8:-1 9:-1 10:-1 
1 1:-0.13671 2:-0.12633 3:-1 4:-1 5:-1 6:-1 7:-1 8:-1 9:-1 10:-1 
1 1:-0.50703 2:-0.61755 3:-1 4:-1 5:-1 6:-1 7:-1 8:-1 9:-0.98229 10:-1 
1 1:-0.081643 2:0.11783 3:-1 4:-1 5:-1 6:-1 7:-1 8:-1 9:-1 10:-1 
1 1:-0.096886 2:-0.10099 3:-1 4:-1 5:-1 6:-1 7:-1 8:-1 9:-1 10:-1 
1 1:-0.45536 2:-0.41289 3:-1 4:-1 5:-1 6:-1 7:-1 8:-1 9:-1 10:-1 
1 1:-0.29524 2:-0.22815 3:-1 4:-1 5:-1 6:-1 7:-1 8:-1 9:-1 10:-1 
1 1:-0.19826 2:-0.24838 3:-1 4:-1 5:-1 6:-1 7:-1 8:-1 9:-1 10:-1 
1 1:0.13697 2:0.11451 3:-1 4:-1 5:-1 6:-1 7:-1 8:-1 9:-1 10:-1 
1 1:0.10433 2:0.21445 3:-1 4:-1 5:-1 6:-1 7:-0.54576 8:-1 9:-1 10:-1 
1 1:-0.11659 2:-0.067618 3:-1 4:-1 5:-1 6:-1 7:-1 8:-1 9:-1 10:-1 
1 1:-0.2353 2:-0.21005 3:-1 4:-1 5:-1 6:-1 7:-1 8:-1 9:-1 10:-1 
1 1:-0.0348 2:-0.029746 3:-1 4:-1 5:-1 6:-1 7:-1 8:-1 9:-1 10:-1 
1 1:-0.60204 2:-0.53591 3:-1 4:-1 5:-1 6:-1 7:-1 8:-1 9:-1 10:-1 
1 1:-0.17093 2:-0.23874 3:-1 4:-1 5:-1 6:-1 7:-1 8:-1 9:-1 10:-1 
1 1:-0.54454 2:-0.65688 3:-1 4:-1 5:-1 6:-1 7:-1 8:-1 9:-1 10:-1 
1 1:-0.45239 2:-0.46326 3:-1 4:-1 5:-1 6:-1 7:-1 8:-1 9:-1 10:-1 
1 1:0.001629 2:0.086146 3:-1 4:-1 5:-1 6:-1 7:-1 8:-1 9:-1 10:-1 
1 1:-0.35714 2:-0.34463 3:-1 4:-1 5:-1 6:-1 7:-1 8:-1 9:-1 10:-1 
1 1:-0.43411 2:-0.53418 3:-1 4:-1 5:-1 6:-1 7:-1 8:-1 9:-1 10:-1 
1 1:0.012243 2:0.10653 3:-1 4:-1 5:-1 6:-1 7:-1 8:-1 9:-1 10:-1 
1 1:-0.45823 2:-0.49553 3:-1 4:-1 5:-1 6:-1 7:-1 8:-1 9:-1 10:-1 
1 1:0.57143 2:0.76369 3:-1 4:-1 5:-1 6:-1 7:-1 8:-1 9:-1 10:-1 
1 1:-0.0497 2:0.033589 3:-0.913 4:-1 5:-1 6:-1 7:-1 8:-1 9:-1 10:-1 
1 1:-0.26729 2:-0.24759 3:-1 4:-1 5:-1 6:-1 7:-1 8:-1 9:-1 10:-1 
1 1:-0.084429 2:-0.057523 3:-1 4:-1 5:-1 6:-1 7:-1 8:-1 9:-1 10:-1 
1 1:-0.030614 2:0.10975 3:-1 4:-1 5:-1 6:-1 7:-1 8:-1 9:-1 10:-1 
1 1:0.19461 2:0.17758 3:-1 4:-1 5:-1 6:-1 7:-1 8:-1 9:-1 10:-1 
1 1:-0.2245 2:-0.071004 3:-1 4:-1 5:-1 6:-1 7:-1 8:-1 9:-1 10:-1 
1 1:-0.28571 2:-0.070385 3:-1 4:-1 5:-1 6:-1 7:-1 8:-1 9:-1 10:-1 
1 1:-0.11597 2:-0.11034 3:-1 4:-1 5:-1 6:-1 7:-1 8:-1 9:-1 10:-1 
1 1:0.37089 2:0.40416 3:-1 4:-1 5:-1 6:-1 7:-0.97412 8:-1 9:-1 10:-1 
1 1:0.005486 2:0.078494 3:-1 4:-1 5:-1 6:-1 7:-1 8:-1 9:-1 10:-1 
1 1:0.15743 2:0.22864 3:-1 4:-1 5:-1 6:-1 7:-1 8:-1 9:-1 10:-1 
1 1:0.2766 2:0.32448 3:-1 4:-1 5:-1 6:-1 7:-1 8:-1 9:-0.98466 10:-1 
1 1:0.24176 2:0.37908 3:-1 4:-1 5:-1 6:-1 7:-1 8:-1 9:-1 10:-1 
1 1:-0.20197 2:-0.27 3:-1 4:-1 5:-0.94889 6:-1 7:-1 8:-1 9:-1 10:-1 
1 1:-0.29854 2:-0.26153 3:-1 4:-1 5:-1 6:-1 7:-1 8:-1 9:-1 10:-1 
1 1:0.57143 2:0.76369 3:-1 4:-1 5:-1 6:-1 7:-0.95579 8:-1 9:-1 10:-1 
1 1:0.24461 2:0.29214 3:-1 4:-1 5:-1 6:-1 7:-1 8:-1 9:-1 10:-1 
1 1:-0.11021 2:-0.11552 3:-1 4:-0.59989 5:-1 6:-1 7:-1 8:-1 9:-1 10:-1 
1 1:0.0112 2:0.10907 3:-0.8824 4:-1 5:-1 6:-1 7:-1 8:-1 9:-1 10:-1 
1 1:-0.057143 2:0.094547 3:-1 4:-1 5:-1 6:-1 7:-1 8:-1 9:-1 10:-1 
1 1:-0.11476 2:-0.11952 3:-1 4:-1 5:-1 6:-1 7:-1 8:-1 9:-1 10:-1 
1 1:-0.17857 2:-0.15342 3:-1 4:-1 5:-1 6:-1 7:-1 8:-1 9:-1 10:-1 
1 1:0.0989 2:0.18918 3:-1 4:-1 5:-1 6:-1 7:-1 8:-1 9:-1 10:-1 
1 1:-0.2898 2:-0.25495 3:-1 4:-1 5:-1 6:-1 7:-0.53794 8:-1 9:-1 10:-1 
1 1:0.44819 2:0.56655 3:-1 4:-1 5:-1 6:-1 7:-1 8:-1 9:-1 10:-1 
1 1:-0.028571 2:0.18501 3:-1 4:-1 5:-1 6:-1 7:-1 8:-1 9:-1 10:-1 
1 1:0.057143 2:0.1768 3:-1 4:-1 5:1.9631 6:-1 7:-1 8:-1 9:-1 10:-1 
1 1:-0.060443 2:-0.10721 3:-1 4:-1 5:-1 6:-1 7:-1 8:-1 9:-1 10:-1 
1 1:-0.0245 2:0.061496 3:-1 4:-1 5:-1 6:-1 7:-1 8:-1 9:-1 10:-1 
1 1:0.10351 2:0.14069 3:-1 4:-1 5:-1 6:-1 7:-1 8:-0.928 9:-1 10:-1 
1 1:-0.28571 2:-0.21337 3:-1 4:-1 5:-1 6:-1 7:-1 8:-1 9:-1 10:-1 
1 1:-0.047614 2:0.000277 3:-1 4:-1 5:-1 6:-1 7:-1 8:-1 9:-1 10:-1 
1 1:0.016171 2:0.040557 3:-1 4:-1 5:-1 6:-1 7:-1 8:-1 9:-1 10:-1 
1 1:0.57983 2:0.57251 3:-1 4:-1 5:-1 6:-1 7:-1 8:-1 9:-0.99158 10:-1 
1 1:-0.37143 2:-0.20627 3:-1 4:-1 5:-1 6:-1 7:-1 8:-1 9:-1 10:-1 
1 1:-0.21429 2:-0.14424 3:-1 4:-1 5:-1 6:-1 7:-1 8:-1 9:-1 10:-1 
1 1:-0.37237 2:-0.43164 3:-1 4:-1 5:-1 6:-1 7:-1 8:-1 9:-1 10:-1 
1 1:0.031743 2:0.076638 3:-1 4:-1 5:-1 6:-1 7:-1 8:-1 9:-1 10:-1 
1 1:0.25656 2:0.50149 3:-1 4:-1 5:-1 6:-1 7:-1 8:-1 9:-1 10:-1 
1 1:0 2:0.1007 3:-1 4:-1 5:-1 6:-1 7:-1 8:-1 9:-1 10:-1 
1 1:-0.32143 2:-0.16267 3:-1 4:-1 5:-1 6:-1 7:-1 8:-1 9:-1 10:-1 
1 1:0.028971 2:0.001221 3:-1 4:-1 5:-1 6:-1 7:-1 8:-1 9:-1 10:-1 
1 1:-0.092786 2:-0.10829 3:-1 4:-0.97116 5:-1 6:-1 7:-1 8:-1 9:-1 10:-1 
1 1:0.12244 2:0.22926 3:-1 4:-1 5:-1 6:-1 7:-1 8:-1 9:-1 10:-1 
1 1:0.337 2:0.42731 3:-1 4:-1 5:-1 6:-1 7:-1 8:-1 9:-1 10:-1 
1 1:-0.68316 2:-0.80143 3:-1 4:-1 5:-0.88622 6:-1 7:-1 8:-1 9:-1 10:-1 
1 1:-0.085714 2:0.18859 3:-1 4:-1 5:-1 6:-1 7:-1 8:-1 9:-1 10:-1 
1 1:0.51213 2:0.65587 3:-1 4:-1 5:-1 6:-1 7:-1 8:-1 9:-1 10:-1 
1 1:-0.16436 2:-0.17244 3:-1 4:-1 5:-1 6:-1 7:-1 8:-1 9:-1 10:-1 
1 1:0.1044 2:0.24919 3:-1 4:-1 5:-1 6:-1 7:-1 8:-1 9:-1 10:-1 
1 1:-0.18369 2:0.032384 3:-1 4:-1 5:-1 6:-1 7:-1 8:-1 9:-1 10:-1 
1 1:-0.51311 2:-0.59609 3:-1 4:-1 5:-1 6:-1 7:-1 8:-1 9:-1 10:-1 
1 1:0.19259 2:0.15932 3:-1 4:-1 5:-1 6:-1 7:-1 8:-1 9:-1 10:-1 
1 1:0.14286 2:0.26964 3:-1 4:-1 5:-1 6:-1 7:-1 8:-1 9:-1 10:-1 
1 1:0.71429 2:0.76369 3:-1 4:-1 5:-0.95467 6:-1 7:-1 8:-1 9:-1 10:-1 
1 1:-0.28571 2:-0.21125 3:-1 4:-1 5:-1 6:-1 7:-1 8:-1 9:-1 10:-1 
1 1:-0.69047 2:-0.80872 3:-0.9488 4:-1 5:-1 6:-1 7:-1 8:-1 9:-1 10:-1 
1 1:-0.11837 2:-0.066087 3:-1 4:-1 5:-1 6:-1 7:-1 8:-1 9:-1 10:-1 
1 1:0.22829 2:0.22819 3:-1 4:-1 5:-1 6:-1 7:-1 8:-1 9:-0.95766 10:-1 
1 1:-0.47826 2:-0.61963 3:-1 4:-1 5:-1 6:-1 7:-1 8:-1 9:-1 10:-1 
1 1:0.004071 2:0.098032 3:-1 4:-1 5:-1 6:-1 7:-1 8:-1 9:-0.93822 10:-1 
1 1:-0.2551 2:-0.12216 3:-1 4:-1 5:-1 6:-1 7:-1 8:-1 9:-1 10:-1 
1 1:-0.67064 2:-0.75086 3:-1 4:-1 5:-1 6:-1 7:-1 8:-1 9:-1 10:-1 
1 1:0.1535 2:0.1375 3:-1 4:-1 5:-1 6:-1 7:-1 8:-1 9:-1 10:-1 
1 1:0.30327 2:0.21933 3:-1 4:-1 5:-1 6:-1 7:-1 8:-1 9:-1 10:-1 
1 1:0.15094 2:0.21907 3:-1 4:-1 5:-1 6:-1 7:-1 8:-1 9:-1 10:-1 
1 1:0 2:0.16863 3:-1 4:-1 5:-1 6:-1 7:-1 8:-1 9:-1 10:-1 
1 1:-0.29393 2:-0.27417 3:-1 4:-1 5:-1 6:-1 7:-1 8:-1 9:-1 10:-1 
1 1:0.20286 2:0.18706 3:-1 4:-1 5:-0.95556 6:-1 7:-1 8:-1 9:-1 10:-0.62857 
1 1:0.076914 2:0.23789 3:-1 4:-1 5:-1 6:-1 7:-1 8:-1 9:-1 10:-1 
1 1:-0.22041 2:-0.13672 3:-1 4:-1 5:-1 6:-1 7:-1 8:-1 9:-1 10:-1 
1 1:-0.13401 2:-0.2008 3:-1 4:-1 5:-1 6:-1 7:-1 8:-1 9:-1 10:-1 
1 1:0.23426 2:0.25114 3:-1 4:-1 5:-1 6:-1 7:-1 8:-1 9:-1 10:-1 
1 1:0 2:0.015516 3:-0.978 4:-1 5:-1 6:-1 7:-1 8:-1 9:-1 10:-1 
1 1:-0.43659 2:-0.54389 3:-0.9898 4:-1 5:-1 6:-1 7:-0.98625 8:-1 9:-1 10:-1 
1 1:-0.050414 2:0.19696 3:-1 4:-1 5:-1 6:-1 7:-1 8:-1 9:-1 10:-1 
1 1:-0.5 2:-0.50735 3:-1 4:-1 5:-1 6:-1 7:-1 8:-1 9:-1 10:-1 
1 1:-0.1186 2:-0.091421 3:-1 4:0.90172 5:-1 6:-1 7:-1 8:-1 9:-1 10:-1 
1 1:-0.28571 2:-0.11679 3:-1 4:-1 5:-1 6:-1 7:-1 8:-1 9:-1 10:-1 
1 1:-0.25714 2:-0.086146 3:-1 4:-1 5:-1 6:-1 7:-1 8:-1 9:-1 10:-1 
1 1:0.28571 2:0.49993 3:-1 4:-1 5:-1 6:-1 7:-1 8:-1 9:-1 10:-1 
1 1:-0.50307 2:-0.62162 3:-1 4:-1 5:-1 6:-1 7:-1 8:-1 9:-1 10:-1 
1 1:-0.34101 2:-0.29891 3:-1 4:-1 5:-1 6:-1 7:-1 8:-1 9:-1 10:-1 
1 1:0.038957 2:0.10839 3:-1 4:-1 5:-1 6:-1 7:-1 8:-1 9:-1 10:-1 
1 1:0.42857 2:0.49993 3:-1 4:-1 5:-1 6:-1 7:-1 8:-1 9:-1 10:-1 
1 1:-0.37439 2:-0.38687 3:-1 4:-1 5:-1 6:-1 7:-1 8:-1 9:-1 10:-1 
1 1:0.23963 2:0.38954 3:-1 4:-1 5:-0.85644 6:-1 7:-1 8:-1 9:-1 10:-1 
1 1:-0.11689 2:0.017405 3:-1 4:-1 5:-1 6:-1 7:-1 8:-1 9:-1 10:-1 
1 1:-0.088957 2:-0.095166 3:-1 4:-1 5:-1 6:-1 7:-1 8:-1 9:-1 10:-1 
1 1:-0.43679 2:-0.52119 3:-1 4:-1 5:-1 6:-1 7:-1 8:-1 9:-1 10:-1 
1 1:-0.10714 2:-0.12877 3:-1 4:-1 5:-0.95156 6:-1 7:-1 8:-1 9:-1 10:-1 
1 1:0.22003 2:0.23815 3:-1 4:-1 5:-1 6:-1 7:-1 8:-1 9:-1 10:-1 
1 1:-0.5617 2:-0.63519 3:-1 4:-1 5:-1 6:-1 7:-1 8:-1 9:-1 10:-1 
-0.5381405731260271 1:0.95879 2:0.93806 3:-1 4:-1 5:-1 6:-1 7:-1 8:-1 9:-1 10:-1 
-1 1:-0.29524 2:-0.28175 3:-1 4:-1 5:-1 6:-1 7:-1 8:-1 9:-1 10:-1 
-1 1:0.20409 2:0.39338 3:-1 4:-1 5:-1 6:-1 7:-1 8:-1 9:-1 10:-1 
-0.1162588900964121 1:-0.612 2:-0.77434 3:-1 4:-1 5:-1 6:-1 7:-1 8:-1 9:-1 10:-1 
-1 1:0.15179 2:0.13496 3:-1 4:-1 5:-1 6:-1 7:-1 8:-1 9:-1 10:-1 
-1 1:0.25714 2:0.28172 3:-1 4:-1 5:-1 6:-1 7:-1 8:-1 9:-1 10:-1 
-1 1:-0.17806 2:-0.19536 3:-0.9856 4:-1 5:-1 6:-1 7:-1 8:-1 9:-1 10:-0.97943 
-0.6577165311979571 1:-0.33143 2:-0.47629 3:-1 4:-1 5:-1 6:-1 7:-1 8:-1 9:-1 10:-1 
-1 1:0.019557 2:-0.021085 3:-1 4:-1 5:-1 6:-1 7:-1 8:-1 9:-1 10:-1 
-1 1:-0.18571 2:0.029519 3:-1 4:-1 5:-1 6:-1 7:-1 8:-1 9:-1 10:-1 
-1 1:0.057429 2:0.15805 3:-0.902 4:-1 5:-1 6:-1 7:-1 8:-1 9:-1 10:-1 
-1 1:0.67701 2:0.71758 3:-1 4:-1 5:-1 6:-1 7:-1 8:-1 9:-1 10:-1 
-0.7675923375772366 1:0.71429 2:0.76369 3:-1 4:-1 5:-1 6:-1 7:-1 8:-1 9:-1 10:-1 
-1 1:0.089286 2:0.24235 3:-1 4:-1 5:-1 6:-1 7:-1 8:-1 9:-1 10:-1 
-1 1:-0.37143 2:-0.24229 3:-1 4:-1 5:-1 6:-1 7:-1 8:-1 9:-1 10:-1 
-1 1:-0.023286 2:-0.052052 3:-1 4:-1 5:-1 6:-1 7:-1 8:-1 9:-1 10:-1 
-1 1:-0.28571 2:-0.11526 3:-1 4:-1 5:-1 6:-1 7:-1 8:-1 9:-1 10:-1 
-0.9729134638871173 1:-0.68 2:-0.75522 3:-1 4:-1 5:-1 6:-1 7:-1 8:-1 9:-1 10:-1 
-1 1:-0.087914 2:0.18696 3:-1 4:-1 5:-1 6:-1 7:-1 8:-1 9:-1 10:-1 
-1 1:-0.012429 2:-0.017828 3:-0.9566 4:-1 5:-1 6:-1 7:-1 8:-1 9:-1 10:-1 
-1 1:-0.53297 2:-0.58221 3:-1 4:-1 5:-1 6:-1 7:-1 8:-1 9:-1 10:-1 
-0.8954013006872756 1:0.15803 2:0.19351 3:-0.9824 4:-1 5:-1 6:-1 7:-1 8:-1 9:-1 10:-0.74714 
-1 1:-0.11521 2:-0.026718 3:-1 4:-1 5:-1 6:-1 7:-1 8:-1 9:-1 10:-1 
-1 1:-0.1871 2:-0.23962 3:-1 4:-1 5:-1 6:-1 7:-1 8:-1 9:-1 10:-1 
-0.8937202392048255 1:-0.22286 2:-0.21301 3:-1 4:-0.888 5:-1 6:-1 7:-1 8:-1 9:-1 10:-1 
-1 1:0 2:0.1007 3:-1 4:-1 5:-1 6:-1 7:-1 8:-1 9:-1 10:-1 
-1 1:-0.25229 2:-0.27944 3:-1 4:-1 5:-1 6:-1 7:-1 8:-1 9:-1 10:-1 
-1 1:-0.32653 2:-0.26772 3:-1 4:-1 5:-1 6:-1 7:-1 8:-1 9:-1 10:-1 
-0.6066579257110436 1:0.68 2:0.76714 3:-1 4:-1 5:-1 6:-1 7:-1 8:-1 9:-0.9568 10:-1 
-1 1:-0.12891 2:-0.19969 3:-1 4:-1 5:-1 6:-1 7:-1 8:-1 9:-1 10:-1 
-1 1:0.12363 2:0.16475 3:-0.9872 4:-1 5:-1 6:-1 7:-1 8:-1 9:-1 10:-1 
-1 1:0.1106 2:0.14118 3:-1 4:-1 5:-1 6:-1 7:-1 8:-1 9:-1 10:-1 
-0.2229950246323434 1:-0.58494 2:-0.7364 3:-1 4:-1 5:-1 6:-1 7:-1 8:-1 9:-1 10:-1 
-0.05850898172854254 1:-0.43117 2:-0.57505 3:-1 4:-1 5:-1 6:-1 7:-1 8:-1 9:-1 10:-1 
-1 1:-0.45421 2:-0.5928 3:-1 4:-1 5:-1 6:-1 7:-1 8:-1 9:-1 10:-1 
-0.8727505568247601 1:-0.33043 2:-0.36313 3:-1 4:-1 5:-1 6:-1 7:-1 8:-1 9:-1 10:-0.95629 
-1 1:0.65651 2:0.67824 3:-1 4:-1 5:-1 6:-1 7:-1 8:-1 9:-1 10:-1 
-1 1:-0.48364 2:-0.61406 3:-1 4:-1 5:-1 6:-1 7:-1 8:-1 9:-1 10:-1 
-1 1:0.6091 2:0.6139 3:-1 4:-1 5:-1 6:-1 7:-1 8:-1 9:-1 10:-1 
-0.183864402378394 1:-0.17857 2:-0.038441 3:-1 4:-1 5:-1 6:-1 7:-1 8:-1 9:-1 10:1.1429 
-0.9334522407589706 1:-0.54546 2:-0.49367 3:-1 4:-1 5:-1 6:-1 7:-1 8:-1 9:-1 10:-1 
-1 1:-0.2381 2:-0.15391 3:-1 4:-1 5:-1 6:-1 7:-1 8:-1 9:-1 10:-1 
-1 1:-0.002857 2:0.017666 3:-1 4:-1 5:-1 6:-1 7:-1 8:-1 9:-1 10:-1 
-1 1:0.82214 2:0.93881 3:-1 4:-1 5:-0.90133 6:-1 7:-1 8:-1 9:-1 10:-1 
-1 1:-0.18807 2:-0.16902 3:-1 4:-1 5:-1 6:-1 7:-1 8:-1 9:-0.97257 10:-1 
-1 1:-0.28571 2:-0.13226 3:-1 4:-1 5:-1 6:-1 7:-1 8:-1 9:-1 10:-1 
-0.07490139714989015 1:-0.43479 2:-0.50077 3:0.971 4:-1 5:-1 6:-1 7:-1 8:-1 9:-1 10:-1 
-1 1:-0.44251 2:-0.52057 3:-1 4:-1 5:-1 6:-1 7:-1 8:-1 9:-1 10:-1 
-1 1:0.044643 2:0.016949 3:-1 4:-1 5:-1 6:-1 7:-1 8:-1 9:-1 10:-1 
-1 1:0.050986 2:0.076344 3:-1 4:-1 5:-1 6:-1 7:-1 8:-1 9:-1 10:-1 
-1 1:-0.20953 2:-0.1485 3:-1 4:-1 5:-1 6:-1 7:-1 8:-1 9:-1 10:-1 
-0.1729162824794653 1:-0.48214 2:-0.47736 3:-1 4:-1 5:-1 6:-1 7:-1 8:0.25 9:-1 10:-1 
-0.929126616514192 1:-0.15103 2:-0.028411 3:-1 4:-1 5:-1 6:-1 7:-0.9229 8:-1 9:-1 10:-1 
-1 1:0.076357 2:0.19198 3:-1 4:-1 5:-1 6:-1 7:-1 8:-1 9:-1 10:-1 
-0.2282018077828763 1:0.68043 2:0.71279 3:-1 4:-0.97452 5:-1 6:-1 7:-1 8:-1 9:-1 10:-1 
-0.9096102548113142 1:0.71429 2:0.82634 3:-1 4:-1 5:-1 6:-1 7:-0.97709 8:-1 9:-1 10:-1 
-0.8126457531314548 1:-0.090586 2:0.021117 3:-1 4:-1 5:-1 6:-1 7:-1 8:-1 9:-0.78918 10:-1 
-1 1:-0.21429 2:-0.070711 3:-1 4:-1 5:-1 6:-1 7:-1 8:-1 9:-1 10:-1 
-1 1:-0.40363 2:-0.40543 3:-1 4:-1 5:-1 6:-1 7:-1 8:-1 9:-1 10:-1 
-1 1:-0.14286 2:-0.071493 3:-1 4:-1 5:-1 6:-1 7:-1 8:-1 9:-1 10:-1 
-0.7291352421159797 1:-0.055686 2:-0.19474 3:-1 4:-1 5:-1 6:-1 7:-1 8:-1 9:-1 10:-1 
-1 1:-0.21979 2:-0.091617 3:-1 4:-1 5:-1 6:-1 7:-1 8:-1 9:-1 10:-1 
-1 1:0.21273 2:0.20383 3:-1 4:-1 5:-1 6:-1 7:-1 8:-1 9:-1 10:-1 
-0.8665777958235504 1:0.0238 2:0.45518 3:-1 4:-1 5:-1 6:-1 7:-1 8:-1 9:-1 10:-1 
-1 1:-0.39931 2:-0.45558 3:-1 4:-1 5:-1 6:-1 7:-1 8:-1 9:-1 10:-1 
-1 1:-0.060443 2:-0.079275 3:-1 4:-1 5:-1 6:-1 7:-1 8:-1 9:-1 10:-1 
-1 1:-0.11514 2:-0.1135 3:-1 4:-1 5:-1 6:-1 7:-1 8:-1 9:-1 10:-1 
-1 1:-0.42857 2:-0.46821 3:-1 4:-1 5:-1 6:-1 7:-1 8:-1 9:-1 10:-1 
-1 1:0.035714 2:0.1373 3:-1 4:-1 5:-1 6:-1 7:-1 8:-1 9:-1 10:-1 
-1 1:0.38236 2:0.40774 3:-1 4:-1 5:-1 6:-1 7:-1 8:-1 9:-1 10:-1 
-1 1:-0.63166 2:-0.76164 3:-1 4:-1 5:-1 6:-1 7:-1 8:-1 9:-1 10:-1 
-1 1:0.25 2:0.27475 3:-1 4:-1 5:-1 6:-1 7:-1 8:-1 9:-1 10:-1 
-1 1:-0.28571 2:-0.14173 3:-1 4:-1 5:-1 6:-1 7:-1 8:-1 9:-1 10:-1 
-0.07481570824473968 1:-0.13601 2:-0.15814 3:-1 4:-0.19446 5:-1 6:-1 7:-1 8:-1 9:-1 10:-1 
-0.1718231321537119 1:-0.35194 2:-0.5111 3:-1 4:-1 5:-1 6:-1 7:-0.9965 8:-1 9:-1 10:-1 
-1 1:-0.090586 2:-0.089826 3:-1 4:-1 5:-1 6:-1 7:-1 8:-1 9:-1 10:-1 
-1 1:0.14286 2:0.097478 3:-1 4:-1 5:-1 6:-1 7:-1 8:-1 9:-1 10:-1 
-1 1:-0.40626 2:-0.47642 3:-1 4:-1 5:-1 6:-1 7:-1 8:-1 9:-1 10:-1 
-1 1:0.41071 2:0.57251 3:-1 4:-1 5:-1 6:-1 7:-1 8:-1 9:-1 10:-1 
-1 1:0.072886 2:0.25697 3:-1 4:-1 5:-1 6:-1 7:-1 8:-1 9:-1 10:-1 
-1 1:-0.18013 2:-0.22526 3:-1 4:-1 5:-1 6:-1 7:-1 8:-1 9:-1 10:-1 
-1 1:0.001257 2:0.038962 3:-1 4:-1 5:-1 6:-1 7:-1 8:-1 9:-1 10:-1 
-1 1:-0.20634 2:-0.078103 3:-1 4:-1 5:-1 6:-1 7:-1 8:-1 9:-1 10:-1 
-1 1:-0.28571 2:-0.12897 3:-1 4:-1 5:-1 6:-1 7:-1 8:-1 9:-1 10:-1 
-1 1:0.14286 2:0.75451 3:-1 4:-1 5:-1 6:-1 7:-1 8:-1 9:-1 10:-1 
-0.008898315079626443 1:-0.14286 2:0.1007 3:-0.5 4:-1 5:-1 6:-1 7:-1 8:-1 9:-1 10:-1 
-1 1:-0.097357 2:-0.067683 3:-1 4:-1 5:-1 6:-1 7:-1 8:-1 9:-1 10:-1 
-1 1:-0.26667 2:-0.24909 3:-1 4:-1 5:-1 6:-1 7:-1 8:-1 9:-1 10:-1 
-1 1:-0.45714 2:-0.54594 3:-1 4:-1 5:-1 6:-1 7:-1 8:-1 9:-1 10:-1 
-1 1:0.56123 2:0.58394 3:-1 4:-1 5:-1 6:-1 7:-1 8:-1 9:-1 10:-1 
-0.2863949127768127 1:-0.33334 2:-0.09217 3:-1 4:-1 5:-1 6:-1 7:-1 8:-1 9:-0.63992 10:-1 
-1 1:-0.3315 2:-0.37641 3:-1 4:-1 5:-1 6:-1 7:-1 8:-1 9:-1 10:-1 
-1 1:-0.65263 2:-0.81064 3:-1 4:-1 5:-1 6:-1 7:-1 8:-1 9:-1 10:-1 
-1 1:-0.33963 2:-0.40435 3:-1 4:-1 5:-1 6:-1 7:-1 8:-1 9:-1 10:-1 
-1 1:-0.39497 2:-0.35066 3:-1 4:-1 5:-1 6:-1 7:-1 8:-1 9:-1 10:-1 
-1 1:-0.085714 2:0.12011 3:-1 4:-1 5:-1 6:-1 7:-1 8:-1 9:-1 10:-1 
-1 1:-0.58791 2:-0.69456 3:-1 4:-1 5:-1 6:-1 7:-1 8:-1 9:-1 10:-1 
-1 1:-0.42449 2:-0.54236 3:-1 4:-1 5:-1 6:-1 7:-1 8:-1 9:-1 10:-1 
-1 1:-0.16989 2:-0.12841 3:-1 4:-1 5:-1 6:-1 7:-1 8:-1 9:-1 10:-1 
-0.5435158839879581 1:0.071429 2:0.34509 3:-1 4:-1 5:-1 6:-1 7:-1 8:-1 9:-0.82007 10:-1 
-0.9577625782980532 1:0.3919 2:0.4346 3:-1 4:-1 5:-1 6:-1 7:-1 8:-1 9:-1 10:-1 
-1 1:-0.035714 2:0.20061 3:-1 4:0.81996 5:-1 6:-1 7:-1 8:-1 9:-1 10:-1 
-1 1:0.20167 2:0.20604 3:-1 4:-1 5:-1 6:-1 7:-1 8:-1 9:-1 10:-1 
-0.03674904946440082 1:-0.40613 2:-0.4445 3:-1 4:-0.95996 5:-1 6:-1 7:-1 8:-1 9:-1 10:-1 
-1 1:-0.38961 2:-0.34369 3:-1 4:-1 5:-1 6:-1 7:-1 8:-1 9:-1 10:-1 
-1 1:0.40857 2:0.53731 3:-1 4:-1 5:-1 6:-1 7:-1 8:-1 9:-1 10:-1 
-1 1:-0.45239 2:-0.46232 3:-1 4:-1 5:-1 6:-1 7:-1 8:-1 9:-1 10:-1 
-1 1:-0.67477 2:-0.7731 3:-1 4:-1 5:-1 6:-1 7:-1 8:-1 9:-1 10:-1 
-1 1:0.30871 2:0.26326 3:-1 4:-1 5:-1 6:-1 7:-1 8:-1 9:-1 10:-1 
-0.9249180903937699 1:-0.6793 2:-0.81191 3:-0.9592 4:-1 5:-1 6:-1 7:-1 8:-1 9:-1 10:-1 
-1 1:0.14286 2:0.11259 3:-1 4:-1 5:-1 6:-1 7:-1 8:-1 9:-1 10:-1 
-1 1:0.085714 2:0.232 3:-1 4:-1 5:-1 6:-1 7:-1 8:-1 9:-1 10:-1 
-1 1:-0.48214 2:-0.45515 3:-1 4:-1 5:-1 6:-1 7:-1 8:-1 9:-1 10:-1 
-1 1:0.13304 2:0.2402 3:-1 4:-1 5:-1 6:-1 7:-1 8:-1 9:-1 10:-1 
-1 1:0.20754 2:0.19995 3:-1 4:-1 5:-1 6:-1 7:-1 8:-1 9:-1 10:-1 
-1 1:-0.36961 2:-0.41819 3:-1 4:-1 5:-1 6:-1 7:-1 8:-1 9:-1 10:-1 
-1 1:0.28571 2:0.35916 3:-1 4:-1 5:-1 6:-1 7:-1 8:-1 9:-1 10:-1 
-1 1:0.031743 2:0.15144 3:-1 4:-1 5:-1 6:-1 7:-0.60075 8:-1 9:-1 10:-1 
-1 1:-0.46237 2:-0.53822 3:-0.9892 4:-1 5:-1 6:-1 7:-1 8:-1 9:-1 10:-1 
-1 1:0.85714 2:1 3:-1 4:-1 5:-0.90933 6:-1 7:-1 8:-1 9:-1 10:-1 
-1 1:0.10317 2:0.24867 3:-1 4:-1 5:-1 6:-1 7:-1 8:-1 9:-1 10:-1 
-0.2094036549779838 1:-0.48046 2:-0.58277 3:-1 4:-1 5:-1 6:-1 7:-1 8:-1 9:-1 10:-1 
-1 1:0.18473 2:0.18524 3:-1 4:-1 5:-1 6:-1 7:-1 8:-1 9:-1 10:-1 
-0.8313223797552867 1:-0.34524 2:-0.1446 3:-1 4:-1 5:-1 6:-1 7:-1 8:-1 9:-1 10:-1 
-1 1:0.54761 2:0.70498 3:-1 4:-1 5:-1 6:-1 7:-1 8:-1 9:-1 10:-1 
-0.9783778360275741 1:-0.72513 2:-0.85106 3:-0.9746 4:-1 5:-1 6:-1 7:-1 8:-1 9:-0.78119 10:-1 
-1 1:-0.43936 2:-0.52725 3:-1 4:-1 5:-1 6:-1 7:-1 8:-1 9:-1 10:-1 
-1 1:0.2965 2:0.33812 3:-1 4:-1 5:-1 6:-1 7:-1 8:-1 9:-1 10:-1 
-1 1:0 2:0.3658 3:-1 4:-1 5:-1 6:-1 7:-1 8:-1 9:-1 10:-1 
-0.9316390406377684 1:0.26354 2:0.31494 3:-1 4:-1 5:-1 6:-1 7:-1 8:-1 9:-1 10:-1 
-1 1:0.42857 2:0.58508 3:-1 4:-1 5:-1 6:-1 7:-1 8:-1 9:-1 10:-1 
-1 1:-0.22857 2:0.035185 3:-1 4:-1 5:-1 6:-1 7:-1 8:-1 9:-1 10:-1 
-1 1:-0.11904 2:0.019359 3:-1 4:-1 5:-1 6:-1 7:-1 8:-1 9:-1 10:-1 
-1 1:-0.10476 2:-0.031863 3:-1 4:-1 5:-1 6:-1 7:-1 8:-1 9:-1 10:-1 
-1 1:-0.25 2:-0.19963 3:-1 4:-1 5:-1 6:-1 7:-1 8:-1 9:-1 10:-1 
-1 1:-0.54574 2:-0.66128 3:-1 4:-1 5:-1 6:-1 7:-1 8:-1 9:-1 10:-1 
-0.02096306115975763 1:0.42857 2:0.35916 3:-0.9512 4:-1 5:-1 6:-1 7:-1 8:-1 9:-1 10:-0.93029 
-1 1:0.26561 2:0.32558 3:-1 4:-1 5:-1 6:-1 7:-1 8:-1 9:-1 10:-1 
-1 1:-0.79001 2:-0.93344 3:-0.988 4:-1 5:-1 6:-1 7:-1 8:-1 9:-1 10:-1 
-0.05564968706677443 1:0.409 2:0.32314 3:-1 4:-1 5:-1 6:-1 7:-1 8:-1 9:-1 10:-1 
-1 1:-0.18571 2:-0.078103 3:-1 4:-1 5:-0.11111 6:-1 7:-1 8:-1 9:-1 10:-1 
-1 1:-0.051029 2:0.1601 3:-1 4:-1 5:-1 6:-1 7:-1 8:-1 9:-1 10:-1 
-1 1:-0.28571 2:-0.21715 3:-1 4:-1 5:-1 6:-1 7:-1 8:-1 9:-1 10:-1 
-0.07021723541190245 1:0.47893 2:0.42318 3:-0.9932 4:-1 5:-1 6:-1 7:-0.99083 8:-1 9:-1 10:-1 
-1 1:0 2:0.16863 3:-1 4:-1 5:-1 6:-1 7:-1 8:-1 9:-1 10:-1 
-1 1:0.15126 2:0.2303 3:-1 4:-1 5:-1 6:-1 7:-1 8:-1 9:-1 10:-1 
-0.05534388294480744 1:0.1948 2:0.32457 3:-1 4:-1 5:-0.596 6:-1 7:-1 8:-1 9:-1 10:-1 
-1 1:-0.021657 2:0.10614 3:-1 4:-1 5:-1 6:-1 7:-1 8:-1 9:-1 10:-1 
-1 1:-0.2 2:-0.0571 3:-1 4:-1 5:-1 6:-1 7:-1 8:-1 9:-1 10:-1 
-0.1044315282057827 1:0.55443 2:0.55792 3:-1 4:-1 5:-1 6:-1 7:-1 8:-1 9:-0.89718 10:-1 
-1 1:0.27731 2:0.34831 3:-1 4:-1 5:-1 6:-1 7:-1 8:-1 9:-1 10:-1 
-0.4517461608818221 1:-0.46874 2:-0.45522 3:-1 4:-1 5:-1 6:-1 7:-1 8:-1 9:-1 10:-1 
-1 1:-0.55797 2:-0.63526 3:-1 4:-1 5:-1 6:-1 7:-1 8:-1 9:-1 10:-1 
-1 1:0.25097 2:0.2968 3:-1 4:-1 5:-1 6:-1 7:-1 8:-1 9:-1 10:-1 
-0.7601930705108236 1:-0.19643 2:-0.13017 3:-1 4:-1 5:-1 6:-1 7:-1 8:-1 9:-0.865 10:-1 
-1 1:-0.34101 2:-0.29989 3:-1 4:-1 5:-1 6:-1 7:-1 8:-1 9:-1 10:-1 
-1 1:-0.31833 2:-0.36326 3:-1 4:-1 5:-1 6:-1 7:-1 8:-1 9:-1 10:-1 
-1 1:-0.24439 2:-0.26375 3:-1 4:-1 5:-1 6:-1 7:-1 8:-1 9:-1 10:-1 
-1 1:0.19601 2:0.29657 3:-1 4:-1 5:-1 6:-1 7:-1 8:-1 9:-1 10:-1 
-1 1:-0.21574 2:-0.14261 3:-1 4:-1 5:-1 6:-1 7:-1 8:-1 9:-1 10:-1 
-1 1:0.004329 2:0.043553 3:-0.9394 4:-1 5:-1 6:-1 7:-1 8:-1 9:-1 10:-1 
-1 1:-0.15919 2:-0.052248 3:-1 4:-1 5:-1 6:-1 7:-1 8:-1 9:-1 10:-1 
-0.9910323107896906 1:-0.7102 2:-0.81559 3:-1 4:-1 5:-1 6:-1 7:-1 8:-1 9:-1 10:-1 
-0.7880476265840508 1:0.31727 2:0.18618 3:-0.9878 4:-1 5:-1 6:-1 7:-1 8:-1 9:-1 10:-1 
-1 1:0.12019 2:0.16062 3:-1 4:-1 5:-1 6:-1 7:-1 8:-1 9:-1 10:-1 
-1 1:-0.045714 2:0.001677 3:-1 4:-1 5:-1 6:-1 7:-1 8:-1 9:-1 10:-1 
-1 1:0.062271 2:0.062017 3:-1 4:-1 5:-1 6:-1 7:-1 8:-1 9:-1 10:-1 
-1 1:0.19306 2:0.25743 3:-1 4:-1 5:-1 6:-1 7:-1 8:-1 9:-1 10:-1 
-1 1:-0.028571 2:0.10168 3:-1 4:-1 5:-1 6:-1 7:-1 8:-1 9:-1 10:-1 
-1 1:-0.023814 2:0.044954 3:-1 4:-1 5:-1 6:-1 7:-1 8:-1 9:-1 10:-1 
-1 1:-0.13187 2:-0.17475 3:-1 4:-1 5:-1 6:-1 7:-1 8:-1 9:-1 10:-1 
-1 1:-0.60749 2:-0.74803 3:-1 4:-1 5:-1 6:-1 7:-1 8:-1 9:-1 10:-1 
-1 1:-0.41667 2:-0.38045 3:-1 4:-1 5:-1 6:-1 7:-1 8:-1 9:-1 10:-1 
-1 1:-0.45021 2:-0.44249 3:-1 4:-1 5:-1 6:-1 7:-1 8:-1 9:-1 10:-1 
-0.02812969247319042 1:-0.273 2:-0.41031 3:-1 4:-1 5:-1 6:-1 7:-1 8:-1 9:-1 10:-1 
-1 1:-0.29286 2:-0.27531 3:-1 4:-1 5:-1 6:-1 7:-1 8:-1 9:-1 10:-1 
-1 1:0.023286 2:0.01353 3:-0.9566 4:-1 5:-1 6:-1 7:-1 8:-1 9:-1 10:-1 
-1 1:-0.22751 2:-0.31598 3:-1 4:-1 5:-1 6:-1 7:-1 8:-1 9:-1 10:-1 
-1 1:-0.27381 2:-0.13753 3:-1 4:-1 5:-1 6:-1 7:-1 8:-1 9:-1 10:-1 
-1 1:-0.11983 2:-0.13646 3:-1 4:-1 5:-1 6:-1 7:-1 8:-1 9:-1 10:-1 
-1 1:0 2:0.083346 3:-1 4:-1 5:-1 6:-1 7:-1 8:-1 9:-1 10:-1 
-1 1:0.53571 2:0.65783 3:-1 4:-1 5:-1 6:-1 7:-1 8:-1 9:-1 10:-1 
-1 1:-0.29493 2:-0.22558 3:-1 4:-1 5:-1 6:-1 7:-1 8:-1 9:-1 10:-1 
-1 1:0.061229 2:0.16413 3:-1 4:-1 5:-1 6:-1 7:-1 8:-1 9:-1 10:-1 
-1 1:0.0204 2:0.042283 3:-1 4:-1 5:-1 6:-1 7:-1 8:-1 9:-1 10:-1 
-1 1:-0.49069 2:-0.47381 3:-1 4:-1 5:-1 6:-1 7:-1 8:-1 9:-1 10:-1 
-1 1:-0.096943 2:-0.095394 3:-1 4:-1 5:-1 6:-1 7:-1 8:-1 9:-1 10:-1 
-1 1:0.18556 2:0.15798 3:-1 4:-1 5:-1 6:-1 7:-1 8:-1 9:-1 10:-1 
-0.02340153735526004 1:-0.69707 2:-0.80133 3:-1 4:-1 5:-1 6:-1 7:-1 8:-1 9:-1 10:0.58343 
-1 1:-0.1875 2:-0.14707 3:-1 4:-1 5:-1 6:-1 7:-1 8:-1 9:-1 10:-1 
-1 1:-0.083557 2:-0.057653 3:-1 4:-1 5:-1 6:-1 7:-1 8:-1 9:-1 10:-1 
-1 1:0.10039 2:0.15371 3:-1 4:-1 5:-1 6:-1 7:-1 8:-1 9:-1 10:-1 
-1 1:-0.35239 2:-0.34551 3:-1 4:-1 5:-1 6:-1 7:-1 8:-1 9:-1 10:-1 
-1 1:0.16401 2:0.14421 3:-1 4:-1 5:-1 6:-1 7:-1 8:-1 9:-1 10:-1 
-0.7015805774720823 1:-0.68499 2:-0.82986 3:-1 4:-1 5:-1 6:-1 7:-1 8:-1 9:-0.97235 10:-1 
-1 1:0.22946 2:0.2333 3:-1 4:-1 5:-1 6:-1 7:-1 8:-1 9:-0.98013 10:-1 
-1 1:0.021157 2:0.056546 3:-1 4:-1 5:-1 6:-1 7:-1 8:-1 9:-1 10:-1 
-1 1:-0.35239 2:-0.25375 3:-1 4:-1 5:-1 6:-1 7:-1 8:-1 9:-0.56799 10:-1 
-1 1:-0.0897 2:-0.096436 3:-1 4:-1 5:-1 6:-1 7:-1 8:-1 9:-1 10:-1 
-0.9443503129332256 1:0.2619 2:0.50947 3:-1 4:-1 5:-1 6:-1 7:-1 8:-1 9:-1 10:-1 
-1 1:0.42857 2:0.5784 3:-1 4:-1 5:-1 6:-1 7:-1 8:-1 9:-1 10:-1 
-1 1:-0.559 2:-0.64565 3:-1 4:-1 5:-1 6:-1 7:-1 8:-1 9:-1 10:-1 
-1 1:0.0021 2:-0.030658 3:-1 4:-1 5:-1 6:-1 7:-1 8:-1 9:-1 10:-1 
-1 1:-0.10054 2:-0.043293 3:-1 4:-1 5:-1 6:-1 7:-1 8:-1 9:-0.92008 10:-1 
-0.03131050855401599 1:-0.47619 2:-0.1501 3:-1 4:-1 5:-1 6:-1 7:-1 8:-1 9:-1 10:-1 
-0.9703071501456244 1:-0.38721 2:-0.37775 3:-0.9474 4:-1 5:-1 6:-1 7:-1 8:-1 9:-1 10:-1 
-1 1:0.40324 2:0.47371 3:-1 4:-1 5:-1 6:-1 7:-0.96576 8:-1 9:-1 10:-1 
-1 1:-0.29761 2:-0.25935 3:-1 4:-1 5:-1 6:-1 7:-1 8:-1 9:-1 10:-1 
-1 1:0.25101 2:0.25271 3:-1 4:-1 5:-1 6:-1 7:-1 8:-1 9:-1 10:-1 
-0.6471511076196391 1:-1 2:-0.85008 3:-1 4:-1 5:-1 6:-1 7:-1 8:-1 9:-1 10:-1 
-1 1:-0.11607 2:-0.11379 3:-1 4:-1 5:-1 6:-1 7:-1 8:-1 9:-1 10:-1 
-1 1:0.33616 2:0.40943 3:-1 4:-1 5:-1 6:-1 7:-1 8:-1 9:-1 10:-1 
-0.04914185711039249 1:-0.5102 2:-0.25753 3:-1 4:-1 5:-1 6:-1 7:-1 8:-1 9:-1 10:-1 
-1 1:-0.076929 2:-0.082304 3:-1 4:-1 5:-1 6:-1 7:-1 8:-1 9:-1 10:-1 
-0.8021864721331119 1:-0.22857 2:-0.25473 3:-1 4:-1 5:-1 6:-1 7:-0.95498 8:-1 9:-1 10:-1 
-1 1:0 2:0.36466 3:-1 4:-1 5:-1 6:-1 7:-1 8:-1 9:-1 10:-1 
-1 1:0.010457 2:0.077842 3:-1 4:-1 5:-1 6:-1 7:-1 8:-1 9:-1 10:-1 
-0.592057575039682 1:-0.45101 2:-0.44235 3:-1 4:0.27985 5:-1 6:-1 7:-1 8:-1 9:-1 10:-1 
-0.03553684873065156 1:0.19276 2:0.20122 3:-1 4:-0.82752 5:-1 6:-1 7:-0.94474 8:-1 9:-1 10:-1 
-1 1:0.42347 2:0.52354 3:-1 4:-1 5:-1 6:-1 7:-1 8:-1 9:-1 10:-1 
-1 1:0.30241 2:0.20992 3:-1 4:-1 5:-1 6:-1 7:-1 8:-1 9:-1 10:-1 
-1 1:-0.4945 2:-0.57043 3:-1 4:-1 5:-1 6:-1 7:-1 8:-1 9:-1 10:-1 
-1 1:-0.34749 2:-0.32822 3:-1 4:-1 5:-1 6:-1 7:-1 8:-1 9:-1 10:-1 
-1 1:-0.37054 2:-0.43666 3:-1 4:-1 5:-1 6:-1 7:-1 8:-1 9:-1 10:-1 
-1 1:0.0989 2:0.18918 3:-1 4:-1 5:-1 6:-1 7:-1 8:-1 9:-1 10:-1 
-0.338322137717761 1:-0.46389 2:-0.60924 3:-0.9888 4:-1 5:-1 6:-1 7:-1 8:-1 9:-1 10:-1 
-0.9317894627987955 1:0 2:0.21177 3:-1 4:-1 5:-1 6:-1 7:-1 8:-1 9:-1 10:-1 
-1 1:-0.082629 2:-0.05482 3:-1 4:-1 5:-1 6:-1 7:-1 8:-1 9:-1 10:-1 
-1 1:0.17487 2:0.15427 3:-1 4:-1 5:-1 6:-1 7:-1 8:-1 9:-1 10:-1 
-1 1:-0.31363 2:-0.36052 3:-1 4:-1 5:-1 6:-1 7:-1 8:-1 9:-1 10:-1 
-1 1:0.73913 2:0.82279 3:-0.826 4:-1 5:-0.90356 6:-1 7:-1 8:-1 9:-1 10:-1 
-0.1155609764133808 1:-0.18557 2:-0.2895 3:-1 4:-1 5:-1 6:-1 7:-1 8:-1 9:-1 10:-1 
-1 1:-0.42017 2:-0.35987 3:-1 4:-1 5:0.30711 6:-1 7:-1 8:-1 9:-1 10:-1 
-1 1:0.10139 2:0.33506 3:-0.9354 4:-1 5:-1 6:-1 7:-1 8:-1 9:-1 10:-1 
-1 1:-0.028571 2:0.061235 3:-1 4:-1 5:-1 6:-1 7:-1 8:-1 9:-1 10:-1 
-0.5888348617959243 1:0.3531 2:0.35603 3:-0.8176 4:-1 5:-1 6:-1 7:-1 8:-1 9:-1 10:-1 
-1 1:-0.48089 2:-0.54942 3:-1 4:-1 5:-1 6:-1 7:-1 8:-1 9:-1 10:-1 
-1 1:-0.51509 2:-0.56808 3:-1 4:-1 5:-1 6:-1 7:-1 8:-1 9:-1 10:-1 
-0.3353953543180734 1:-0.766 2:-0.94152 3:-0.982 4:-1 5:-1 6:-1 7:-1 8:-1 9:-1 10:-0.98971 
-1 1:-0.48067 2:-0.53487 3:-1 4:-1 5:-1 6:-1 7:-1 8:-1 9:-1 10:-1 
-1 1:-0.034914 2:0.013172 3:-1 4:-1 5:-1 6:-1 7:-1 8:-1 9:-1 10:-1 
-0.1263224066794379 1:0.093871 2:0.093147 3:-0.7142 4:-1 5:-1 6:-1 7:-1 8:-1 9:-1 10:-1 
-1 1:-0.0598 2:-0.074 3:-1 4:-1 5:-1 6:-1 7:-1 8:-1 9:-1 10:-1 
-1 1:0 2:0.16863 3:-0.913 4:-1 5:-1 6:-1 7:-1 8:-1 9:-1 10:-1 
-1 1:-0.18707 2:-0.24929 3:-1 4:-1 5:-1 6:-1 7:-1 8:-1 9:-1 10:-1 
-1 1:-0.084657 2:0.047819 3:-1 4:-1 5:-1 6:-1 7:-1 8:-1 9:-1 10:-1 
-1 1:0.25876 2:0.31529 3:-1 4:-1 5:-1 6:-1 7:-1 8:-1 9:-1 10:-1 
-1 1:-0.13266 2:-0.072176 3:-1 4:-1 5:-1 6:-1 7:-1 8:-1 9:-1 10:-1 
-1 1:-0.21429 2:0.039157 3:-1 4:-1 5:-1 6:-1 7:-1 8:-1 9:-1 10:-1 
-1 1:-0.0284 2:-0.035152 3:-1 4:-1 5:-1 6:-1 7:-1 8:-1 9:-1 10:-1 
-1 1:0.24176 2:0.37908 3:-1 4:-1 5:-1 6:-1 7:-1 8:-1 9:-1 10:-1 
-1 1:-0.46399 2:-0.5771 3:-1 4:-1 5:-1 6:-1 7:-1 8:-1 9:-1 10:-1 
-1 1:-0.52857 2:-0.49306 3:-1 4:-1 5:-1 6:-1 7:-1 8:-1 9:-1 10:-1 
-1 1:-0.13907 2:-0.14766 3:-1 4:-1 5:-1 6:-1 7:-1 8:-1 9:-1 10:-1 
-1 1:0.42857 2:0.35916 3:-1 4:-1 5:-1 6:-1 7:-1 8:-1 9:-1 10:-1 
-1 1:-0.2231 2:-0.23555 3:-1 4:-1 5:-1 6:-1 7:-1 8:-1 9:-1 10:-1 
-1 1:0.22321 2:0.2401 3:-1 4:-1 5:-1 6:-1 7:-1 8:-1 9:-1 10:-1 
-1 1:-0.42857 2:-0.44698 3:-1 4:-1 5:-1 6:-1 7:-1 8:-1 9:-1 10:-1 
-0.9055030659063504 1:-0.071429 2:0.037757 3:-1 4:-1 5:-1 6:-1 7:-1 8:-1 9:-0.865 10:-1 
-1 1:-0.45876 2:-0.515 3:-1 4:-1 5:-1 6:-1 7:-1 8:-1 9:-1 10:-1 
-1 1:0.027029 2:-0.002231 3:-1 4:-1 5:-1 6:-1 7:-1 8:-1 9:-1 10:-1 
-1 1:-0.37267 2:-0.38342 3:-1 4:-1 5:-1 6:-1 7:-1 8:-1 9:-1 10:-1 
-0.1755491547881374 1:0.56671 2:0.53809 3:-1 4:-1 5:-1 6:-1 7:-1 8:-1 9:-1 10:-1 
-0.9802479223736811 1:-0.51479 2:-0.62139 3:-1 4:-0.9944 5:-1 6:-1 7:-1 8:-1 9:-0.99568 10:-1 
-0.8357471111930791 1:-0.14286 2:0.44799 3:-1 4:-1 5:-1 6:-1 7:-1 8:-1 9:-1 10:-1 
-0.9603749113661231 1:0.43973 2:0.51419 3:-1 4:-1 5:-1 6:-1 7:-1 8:-1 9:-1 10:-1 
-1 1:0.14286 2:0.26964 3:-1 4:-1 5:-1 6:-1 7:-1 8:-1 9:-1 10:-1 
-0.1180829797341056 1:-0.35714 2:-0.48899 3:-1 4:-1 5:-1 6:-1 7:-1 8:-1 9:-1 10:-1 
-1 1:0.16883 2:0.31161 3:-1 4:-1 5:-1 6:-1 7:-1 8:-1 9:-1 10:-1 
-1 1:-0.25539 2:-0.33294 3:-1 4:-1 5:-1 6:-1 7:-1 8:-1 9:-1 10:-1 
-1 1:0.14286 2:0.22366 3:-1 4:-1 5:-1 6:-1 7:-1 8:-1 9:-1 10:-1 
-1 1:-0.22519 2:-0.28364 3:-1 4:-1 5:-1 6:-1 7:-1 8:-1 9:-1 10:-1 
-1 1:0.18453 2:0.30868 3:-1 4:-1 5:-1 6:-1 7:-1 8:-1 9:-1 10:-1 
-1 1:-0.5012 2:-0.6195 3:-1 4:-1 5:-1 6:-1 7:-1 8:-1 9:-1 10:-1 
-0.9344701743140232 1:-0.15283 2:-0.1868 3:-0.814 4:-1 5:-1 6:-1 7:-1 8:-1 9:-1 10:-1 
-0.7466960064119639 1:-0.58741 2:-0.75027 3:-0.9856 4:-1 5:-1 6:-1 7:-1 8:-1 9:-1 10:-1 
-1 1:-0.18487 2:-0.1869 3:-1 4:-1 5:-1 6:-1 7:-1 8:-1 9:-1 10:-1 
-1 1:-0.058829 2:0.092203 3:-1 4:-1 5:-1 6:-1 7:-1 8:-1 9:-1 10:-1 
-0.4743600349837169 1:-0.33309 2:-0.42913 3:-0.917 4:-1 5:-1 6:-1 7:-1 8:-1 9:-0.8434 10:-1 
-1 1:0.10951 2:0.13945 3:-1 4:-1 5:-1 6:-1 7:-1 8:-1 9:-1 10:-1 
-0.06879105978720124 1:-0.36509 2:-0.44978 3:-1 4:-1 5:-1 6:-1 7:-1 8:-1 9:-1 10:-1 
-0.4865436413835266 1:-0.42247 2:-0.50348 3:-0.983 4:-1 5:-1 6:-1 7:-1 8:-1 9:-1 10:-1 
-1 1:0.14286 2:0.20946 3:-1 4:-1 5:-1 6:-1 7:-1 8:-1 9:-1 10:-1 
-1 1:0.32226 2:0.37029 3:-1 4:-1 5:-1 6:-1 7:-1 8:-1 9:-1 10:-1 
-1 1:-0.051943 2:0.19754 3:-1 4:-1 5:-1 6:-1 7:-1 8:-1 9:-1 10:-1 
-0.6762359333896788 1:-0.085714 2:-0.035412 3:-1 4:-1 5:-1 6:-1 7:-1 8:-1 9:-1 10:-1 
-1 1:0.18076 2:0.24489 3:-1 4:-1 5:-1 6:-1 7:-1 8:-1 9:-1 10:-1 
-1 1:0.11836 2:0.21083 3:-1 4:-1 5:-1 6:-1 7:-1 8:-1 9:-1 10:-1 
-1 1:-0.11734 2:-0.16042 3:-1 4:-1 5:-1 6:-1 7:-1 8:-1 9:-0.76866 10:-1 
-1 1:-0.4381 2:-0.53457 3:-1 4:-1 5:-1 6:-1 7:-1 8:-1 9:-1 10:-1 
-1 1:-0.28571 2:-0.21327 3:-1 4:-1 5:-1 6:-1 7:-1 8:-1 9:-1 10:-1 
-1 1:0.41997 2:0.48355 3:-1 4:-1 5:-1 6:-1 7:-1 8:-1 9:-1 10:-1 
-1 1:-0.46544 2:-0.54933 3:-1 4:-1 5:-1 6:-1 7:-1 8:-1 9:-1 10:-1 
-1 1:0.68886 2:0.72044 3:-1 4:-1 5:-0.64178 6:-1 7:-1 8:-1 9:-1 10:-1 
-0.9802771120691143 1:-0.05 2:0.049317 3:-0.9 4:-1 5:-1 6:-1 7:-1 8:-1 9:-1 10:-1 
-1 1:-0.20409 2:-0.018219 3:-1 4:-1 5:-1 6:-1 7:-1 8:-1 9:-1 10:-1 
-0.7978280956018858 1:-0.65373 2:-0.80973 3:-1 4:-1 5:-1 6:-1 7:-1 8:-1 9:-1 10:-1 
-0.3932783244289803 1:-0.53383 2:-0.5912 3:-1 4:-1 5:-1 6:-1 7:-1 8:-1 9:-1 10:-1 
-1 1:-0.21059 2:-0.26528 3:-1 4:-1 5:-1 6:-1 7:-1 8:-1 9:-1 10:-1 
-1 1:0.25656 2:0.31249 3:-1 4:-1 5:-1 6:-1 7:-1 8:-1 9:-1 10:-1 
-1 1:-0.049114 2:0.045442 3:-1 4:-1 5:-1 6:-1 7:-1 8:-1 9:-1 10:-1 
-1 1:-0.22857 2:-0.17644 3:-1 4:-1 5:-1 6:-1 7:-1 8:-1 9:-1 10:-1 
-0.9362109730449298 1:0.15374 2:0.18257 3:-0.9804 4:-1 5:-1 6:-1 7:-0.98949 8:-1 9:-1 10:-1 
-0.2958586964439409 1:-0.79221 2:-0.95343 3:-0.974 4:-1 5:-1 6:-1 7:-1 8:-1 9:-1 10:-1 
-1 1:-0.11021 2:-0.086048 3:-1 4:-1 5:-1 6:-1 7:-1 8:-1 9:-1 10:-1 
-0.2293886795001307 1:0.68 2:0.77232 3:-1 4:-1 5:-1 6:-1 7:-1 8:-0.6 9:-1 10:-1 
-1 1:0.28571 2:0.3658 3:-1 4:-1 5:-1 6:-1 7:-1 8:-1 9:-1 10:-1 
-1 1:0 2:0.1007 3:-1 4:-1 5:-1 6:-1 7:-1 8:-1 9:-1 10:-1 
-1 1:-0.1601 2:-0.16918 3:-1 4:-1 5:-1 6:-1 7:-1 8:-1 9:-1 10:-1 
-1 1:0.036729 2:0.10917 3:-1 4:-1 5:-1 6:-1 7:-1 8:-1 9:-1 10:-1 
-0.9250832001247127 1:-0.57983 2:-0.61165 3:-1 4:-1 5:-1 6:-1 7:-1 8:-1 9:-1 10:-1 
-1 1:0.28571 2:0.34483 3:-0.8858 4:-1 5:-1 6:-1 7:-1 8:-1 9:-1 10:-1 
-1 1:0.38571 2:0.48755 3:-1 4:-1 5:-1 6:-1 7:-1 8:-1 9:-1 10:-1 
-1 1:0.19814 2:0.18231 3:-0.992 4:-1 5:-1 6:-1 7:-1 8:-1 9:-1 10:-1 
-0.9630964699497693 1:0.28571 2:0.49993 3:-1 4:-1 5:-1 6:-1 7:-1 8:-1 9:-1 10:-1 
-1 1:0.071429 2:0.1584 3:-1 4:-1 5:-1 6:-1 7:-1 8:-1 9:-1 10:-1 
-1 1:-0.25714 2:-0.12346 3:-1 4:-1 5:-1 6:-1 7:-1 8:-1 9:-1 10:-1 
-1 1:0.093214 2:0.047624 3:-1 4:-1 5:-1 6:-1 7:-1 8:-1 9:-1 10:-1 
-0.9794518743822041 1:-0.70613 2:-0.83067 3:-0.9714 4:-1 5:-1 6:-1 7:-1 8:-1 9:-1 10:-1 
-1 1:-0.17857 2:-0.24128 3:-1 4:-1 5:-1 6:-1 7:-1 8:-1 9:-1 10:-1 
-0.4164797668869213 1:0.85714 2:0.82634 3:-1 4:-1 5:-0.984 6:-1 7:-1 8:-1 9:-1 10:-0.86114 
-1 1:0.066871 2:0.080968 3:-1 4:-1 5:-1 6:-1 7:-1 8:-1 9:-1 10:-1 
-0.3515201477919045 1:0.19986 2:0.14443 3:-0.9898 4:-1 5:-1 6:-1 7:-1 8:-1 9:-1 10:-1 
-1 1:-0.35239 2:-0.36153 3:-1 4:-1 5:-1 6:-1 7:-1 8:-1 9:-1 10:-1 
-1 1:-0.12699 2:-0.084094 3:-1 4:-1 5:-1 6:-1 7:-1 8:-1 9:-1 10:-1 
-1 1:-0.10204 2:0.004608 3:-1 4:-1 5:-1 6:-1 7:-1 8:-1 9:-1 10:-1 
-1 1:-0.18367 2:0.090444 3:-1 4:-1 5:-1 6:-1 7:-1 8:-1 9:-1 10:-1 
-1 1:0.20953 2:0.35824 3:-1 4:-1 5:-1 6:-1 7:-1 8:-1 9:-1 10:-1 
-1 1:-0.26419 2:-0.44063 3:-0.9864 4:-1 5:-1 6:-1 7:-1 8:-1 9:-1 10:-1 
-1 1:0.17143 2:0.4012 3:-1 4:-1 5:-1 6:-1 7:-1 8:-1 9:-1 10:-1 
-1 1:-0.19837 2:-0.28514 3:-1 4:-0.91292 5:-1 6:-1 7:-1 8:-1 9:-1 10:-1 
-1 1:-0.18571 2:-0.030756 3:-1 4:-1 5:-1 6:-1 7:-1 8:-1 9:-1 10:-1 
-1 1:-0.089957 2:0.037171 3:-1 4:-1 5:-1 6:-1 7:-1 8:-1 9:-1 10:-1 
-1 1:-0.13937 2:-0.19777 3:-1 4:-1 5:-1 6:-1 7:-1 8:-1 9:-1 10:-1 
-0.7800836607564896 1:-0.39131 2:-0.44656 3:-1 4:-0.9594 5:-1 6:-1 7:-1 8:-1 9:-1 10:-1 
-1 1:-0.4097 2:-0.40282 3:-1 4:-1 5:-1 6:-1 7:-1 8:-1 9:-1 10:-1 
-1 1:0.23616 2:0.27589 3:-1 4:-1 5:-1 6:-1 7:-1 8:-1 9:-1 10:-1 
-1 1:0.40834 2:0.53835 3:-1 4:-1 5:-1 6:-1 7:-1 8:-1 9:-1 10:-1 
-1 1:-0.20754 2:-0.20406 3:-1 4:-1 5:-1 6:-1 7:-1 8:-1 9:-1 10:-1 
-0.8900600971099968 1:-0.42857 2:-0.33685 3:-1 4:-1 5:-1 6:-1 7:-1 8:-1 9:-1 10:-1 
-1 1:-0.069129 2:-0.10715 3:-1 4:-1 5:-1 6:-1 7:-1 8:-1 9:-1 10:-1 
-1 1:-0.53917 2:-0.62855 3:-1 4:-1 5:-1 6:-1 7:-1 8:-1 9:-1 10:-1 
-0.9887989763965108 1:0.28571 2:0.35916 3:-1 4:-0.52457 5:-1 6:-1 7:-1 8:-1 9:-1 10:-1 
-0.8342966632045767 1:-0.20409 2:-0.08683 3:-1 4:-1 5:-1 6:-1 7:-1 8:-1 9:-0.69133 10:-1 
-0.7973600482102599 1:-0.69003 2:-0.75171 3:-1 4:-1 5:-1 6:-1 7:-1 8:-1 9:-1 10:-1 
-1 1:0.0202 2:-0.011316 3:-1 4:-1 5:-1 6:-1 7:-1 8:-1 9:-1 10:-1 
-1 1:-0.52041 2:-0.66261 3:-1 4:-1 5:-1 6:-1 7:-1 8:-1 9:-1 10:-1 
-1 1:-0.15217 2:-0.15752 3:-1 4:-1 5:-1 6:-1 7:-1 8:-1 9:-1 10:-1 
-1 1:-0.32143 2:0.20025 3:-1 4:-1 5:-1 6:-1 7:-1 8:-1 9:-1 10:-1 
-1 1:-0.46059 2:-0.49703 3:-1 4:-1 5:-1 6:-1 7:-1 8:-1 9:-1 10:-1 
-0.3944452786675848 1:0.85714 2:0.82634 3:-0.9604 4:-1 5:-0.976 6:-1 7:-0.9903 8:-1 9:-0.9689 10:-1 
-0.483818844563145 1:-0.54286 2:-0.59257 3:-0.9714 4:-1 5:-1 6:-1 7:-1 8:-1 9:-1 10:-1 
-1 1:-0.21574 2:-0.2472 3:-1 4:-1 5:-1 6:-1 7:-1 8:-1 9:-1 10:-1 
-1 1:-0.59606 2:-0.65669 3:-1 4:-1 5:-1 6:-1 7:-1 8:-1 9:-1 10:-1 
-1 1:-0.31933 2:-0.24974 3:-1 4:-1 5:-1 6:-1 7:-1 8:-1 9:-1 10:-1 
-1 1:-0.51456 2:-0.59452 3:-1 4:-1 5:-1 6:-1 7:-1 8:-1 9:-1 10:-1 
-1 1:-0.31429 2:-0.34857 3:-1 4:-1 5:-1 6:-1 7:-1 8:-1 9:-1 10:-1 
-1 1:0.015529 2:0.040818 3:-0.9566 4:-1 5:-1 6:-1 7:-1 8:-1 9:-1 10:-1 
-0.3024610633337309 1:-0.77329 2:-0.94399 3:-0.9566 4:-0.97984 5:-1 6:-1 7:-1 8:-1 9:-1 10:-1 
-0.2675174972500448 1:0.005829 2:-0.088653 3:-0.8368 4:-1 5:-1 6:-1 7:-1 8:-1 9:-1 10:-1 
-1 1:-0.21429 2:0.04427 3:-1 4:-1 5:-1 6:-1 7:-1 8:-1 9:-1 10:-1 
-1 1:0.080143 2:0.062179 3:-1 4:-1 5:-1 6:-1 7:-1 8:-1 9:-1 10:-1 
-1 1:0.17183 2:0.12672 3:-1 4:-1 5:-1 6:-1 7:-1 8:-1 9:-1 10:-1 
-1 1:0.1733 2:0.25407 3:-1 4:-1 5:-1 6:-1 7:-1 8:-1 9:-1 10:-1 
-1 1:-0.20817 2:-0.13209 3:-1 4:-1 5:-1 6:-1 7:-1 8:-1 9:-1 10:-1 
-0.2870920188023258 1:-0.66939 2:-0.82989 3:-0.981 4:-1 5:-1 6:-1 7:-1 8:-1 9:-1 10:-1 
-1 1:0.040814 2:0.034305 3:-1 4:-1 5:-1 6:-1 7:-1 8:-1 9:-1 10:-1 
-1 1:-0.25714 2:-0.082727 3:-1 4:-1 5:-1 6:-1 7:-1 8:-1 9:-1 10:-1 
-1 1:-0.097943 2:-0.22047 3:-1 4:-1 5:-1 6:-1 7:-1 8:-1 9:-1 10:-1 
-1 1:-0.69147 2:-0.82908 3:-1 4:-1 5:-1 6:-1 7:-1 8:-1 9:-1 10:-1 
-1 1:-0.057143 2:0.13779 3:-1 4:-1 5:-1 6:-1 7:-1 8:-1 9:-1 10:-1 
-0.1708041484869623 1:-0.6391 2:-0.68847 3:-1 4:-1 5:0.16978 6:-1 7:-1 8:-1 9:-1 10:-1 
-1 1:0.23549 2:0.2556 3:-1 4:-1 5:-1 6:-1 7:-1 8:-1 9:-1 10:-1 
-1 1:-0.57413 2:-0.6434 3:-1 4:-1 5:-1 6:-1 7:-1 8:-1 9:-1 10:-1 
-1 1:-0.032071 2:0.14118 3:-1 4:-1 5:-1 6:-1 7:-1 8:-1 9:-1 10:-1 
-1 1:-0.087914 2:0.001482 3:-1 4:-1 5:-1 6:-1 7:-1 8:-1 9:-1 10:-1 
-1 1:-0.41114 2:-0.42946 3:-1 4:-1 5:-1 6:-1 7:-1 8:-1 9:-1 10:-1 
-1 1:-0.040829 2:0.1093 3:-1 4:-1 5:-1 6:-1 7:-1 8:-1 9:-1 10:-1 
-1 1:-0.50204 2:-0.50686 3:-1 4:-1 5:-1 6:-1 7:-1 8:-1 9:-1 10:-1 
-1 1:-0.56343 2:-0.65021 3:-1 4:-1 5:-1 6:-1 7:-1 8:-1 9:-1 10:-1 
-0.8301112776743028 1:-0.52857 2:-0.41373 3:-1 4:-1 5:-1 6:-1 7:-1 8:-1 9:-1 10:-1 
-0.1437426952054766 1:-0.57143 2:-0.5574 3:-1 4:-1 5:-1 6:-1 7:-1 8:-1 9:-0.69133 10:-1 
-1 1:-0.19841 2:-0.013921 3:-1 4:-1 5:-1 6:-1 7:-1 8:-1 9:-1 10:-1 
-1 1:-0.45379 2:-0.40908 3:-1 4:-1 5:-1 6:-1 7:-1 8:-1 9:-1 10:-1 
-1 1:0.18367 2:0.53334 3:-1 4:-1 5:-1 6:-1 7:-0.61477 8:-1 9:-1 10:-1 
-1 1:-0.082629 2:-0.086569 3:-1 4:-1 5:-1 6:-1 7:-1 8:-1 9:-1 10:-1 
-1 1:0.10714 2:0.27319 3:-1 4:-1 5:-1 6:-1 7:-1 8:-1 9:-1 10:-1 
-1 1:0.14286 2:0.30478 3:-1 4:-1 5:-1 6:-1 7:-1 8:-1 9:-1 10:-1 
-1 1:0.038086 2:0.077842 3:-1 4:-1 5:-1 6:-1 7:-1 8:-1 9:-1 10:-1 
-1 1:-0.32 2:-0.31386 3:-1 4:-1 5:-1 6:-1 7:-1 8:-1 9:-1 10:-1 
-1 1:-0.34843 2:-0.41363 3:-1 4:-1 5:-1 6:-1 7:-1 8:-1 9:-1 10:-1 
-0.1232672276581398 1:-0.38096 2:-0.42712 3:-0.9938 4:-1 5:-1 6:-1 7:-1 8:-1 9:-1 10:-1 
-1 1:-0.12434 2:-0.064687 3:-1 4:-1 5:-1 6:-1 7:-1 8:-1 9:-1 10:-1 
-1 1:-0.13941 2:-0.122 3:-1 4:-1 5:-1 6:-1 7:-1 8:-1 9:-1 10:-1 
-1 1:-0.32467 2:-0.16593 3:-1 4:-1 5:-1 6:-1 7:-1 8:-1 9:-1 10:-1 
-1 1:-0.20277 2:-0.25007 3:-1 4:-1 5:-1 6:-1 7:-1 8:-1 9:-1 10:-1 
-1 1:0.38774 2:0.49107 3:-1 4:-1 5:-1 6:-1 7:-1 8:-1 9:-1 10:-1 
-1 1:0.24259 2:0.29028 3:-1 4:-1 5:-1 6:-1 7:-1 8:-1 9:-1 10:-1 
-1 1:0.30714 2:0.53594 3:-1 4:-1 5:1 6:-1 7:-1 8:-1 9:-1 10:-1 
-1 1:0.15061 2:0.1785 3:-0.9782 4:-1 5:-1 6:-1 7:-1 8:-1 9:-1 10:-1 
-1 1:0.14286 2:0.42865 3:-1 4:-1 5:-1 6:-1 7:-1 8:-1 9:-1 10:-1 
-0.1018288196779983 1:-0.42857 2:-0.02789 3:-1 4:-1 5:-1 6:-1 7:-1 8:-1 9:-1 10:-1 
-1 1:-0.093671 2:-0.16361 3:-1 4:-1 5:-1 6:-1 7:-1 8:-1 9:-1 10:-1 
-1 1:-0.43956 2:-0.52412 3:-1 4:-1 5:-1 6:-1 7:-1 8:-1 9:-1 10:-1 
-1 1:0 2:0.25886 3:-1 4:-1 5:-1 6:-1 7:-1 8:-1 9:-1 10:-1 
-1 1:0.14286 2:0.3658 3:-1 4:-1 5:-1 6:-1 7:-1 8:-1 9:-1 10:-1 
-1 1:-0.35714 2:-0.34222 3:-1 4:-1 5:-1 6:-1 7:-1 8:-1 9:-1 10:-1 
-1 1:-0.16149 2:-0.146 3:-1 4:-1 5:-1 6:-1 7:-1 8:-1 9:-1 10:-1 
-1 1:-0.23214 2:-0.28364 3:-1 4:-1 5:-1 6:-1 7:-1 8:-1 9:-1 10:-1 
-1 1:-0.0762 2:0.081099 3:-1 4:-1 5:-1 6:-1 7:-1 8:-1 9:-1 10:-1 
-1 1:-0.23393 2:-0.20849 3:-1 4:-1 5:-1 6:-1 7:-1 8:-1 9:-1 10:-1 
-1 1:-0.6746 2:-0.75027 3:-1 4:-1 5:-1 6:-1 7:-1 8:-1 9:-1 10:-1 
-1 1:-0.26891 2:-0.32044 3:-1 4:-1 5:-1 6:-1 7:-1 8:-1 9:-1 10:-1 
-1 1:0.1213 2:0.22457 3:-1 4:-1 5:-1 6:-1 7:-1 8:-1 9:-1 10:-1 
-1 1:-0.061771 2:0.05062 3:-1 4:-1 5:-1 6:-1 7:-1 8:-1 9:-1 10:-1 
-1 1:-0.45919 2:-0.41816 3:-1 4:-1 5:-1 6:-1 7:-1 8:-1 9:-1 10:-1 
-1 1:-0.17687 2:0.020271 3:-1 4:-1 5:-1 6:-1 7:-1 8:-1 9:-1 10:-1 
-1 1:0.23429 2:0.27264 3:-1 4:-1 5:-1 6:-1 7:-1 8:-1 9:-1 10:-1 
-1 1:0.28571 2:0.48501 3:-1 4:-1 5:-1 6:-1 7:-1 8:-1 9:-1 10:-1 
-1 1:-0.66344 2:-0.84239 3:-1 4:-1 5:-1 6:-1 7:-1 8:-1 9:-1 10:-1 
-0.4242796391312104 1:-0.22449 2:0.062538 3:-1 4:-1 5:-1 6:-1 7:-1 8:-1 9:-1 10:-1 
-1 1:-0.55623 2:-0.59941 3:-1 4:-1 5:-1 6:-1 7:-1 8:-1 9:-1 10:-1 
-0.825053032645636 1:0.53383 2:0.6983 3:-0.9474 4:-1 5:-1 6:-1 7:-1 8:-1 9:-1 10:-1 
-1 1:-0.35101 2:-0.37098 3:-1 4:-1 5:-1 6:-1 7:-1 8:-1 9:-1 10:-1 
-0.9141831998284887 1:-0.64286 2:-0.7183 3:-1 4:-1 5:-1 6:-1 7:-1 8:-1 9:-1 10:-1 
-1 1:-0.23769 2:-0.25648 3:-1 4:-1 5:-1 6:-1 7:-1 8:-1 9:-1 10:-1 
-1 1:-0.051029 2:0.19273 3:-1 4:-1 5:-1 6:-1 7:-1 8:-1 9:-1 10:-1 
-0.8804336146049966 1:0.14286 2:0.45255 3:-1 4:-1 5:-1 6:-1 7:-1 8:-1 9:-1 10:-1 
-1 1:-0.080143 2:-0.087318 3:-1 4:-1 5:-1 6:-1 7:-1 8:-1 9:-1 10:-1 
-1 1:-0.30904 2:-0.43122 3:-1 4:-1 5:-1 6:-1 7:-1 8:-1 9:-1 10:-1 
-1 1:-0.061229 2:-0.044335 3:-1 4:-1 5:-1 6:-1 7:-1 8:-1 9:-1 10:-1 
-0.1382659174005989 1:0.054943 2:0.15593 3:-1 4:-1 5:-1 6:-1 7:-0.79269 8:-1 9:-1 10:-1 
-1 1:0.42857 2:0.58508 3:-1 4:-1 5:-1 6:-1 7:-1 8:-1 9:-1 10:-1 
-1 1:0.039186 2:0.10998 3:-1 4:-1 5:-1 6:-1 7:-1 8:-1 9:-1 10:-1 
-1 1:-0.064943 2:0.12096 3:-1 4:-1 5:-1 6:-1 7:-1 8:-1 9:-1 10:-1 
-1 1:0.034743 2:0.082238 3:-1 4:-1 5:-1 6:-1 7:-1 8:-1 9:-1 10:-1 
-1 1:-0.090229 2:-0.11132 3:-1 4:-1 5:-1 6:-1 7:-1 8:-1 9:-1 10:-1 
-1 1:-0.047614 2:0.10874 3:-1 4:-1 5:-1 6:-1 7:-1 8:-1 9:-1 10:-1 
-0.6298161485435372 1:-0.44217 2:-0.47489 3:-1 4:-1 5:-1 6:-1 7:-0.18695 8:-1 9:-1 10:-1 
-1 1:0.40846 2:0.32418 3:-1 4:-1 5:-1 6:-1 7:-1 8:-1 9:-1 10:-1 
-1 1:-0.22619 2:-0.071558 3:-1 4:-1 5:-1 6:-1 7:-1 8:-1 9:-1 10:-1 
-1 1:-0.67399 2:-0.80657 3:-1 4:-1 5:-1 6:-1 7:-1 8:-1 9:-1 10:-1 
-0.5262027953107092 1:0.71429 2:0.82634 3:-1 4:-1 5:-0.93022 6:-1 7:-1 8:-1 9:-1 10:-1 
-0.9785864163881364 1:0.5255 2:0.68016 3:-1 4:-1 5:-1 6:-1 7:-1 8:-1 9:-1 10:-1 
-1 1:-0.081629 2:0.14877 3:-1 4:-1 5:-1 6:-1 7:-1 8:-1 9:-1 10:-1 
-0.1606186616914443 1:-0.814 2:-0.98007 3:-1 4:-1 5:-1 6:-1 7:-1 8:-1 9:-1 10:-1 
-1 1:-0.12244 2:-0.082662 3:-1 4:-1 5:-1 6:-1 7:-1 8:-1 9:-1 10:-1 
-1 1:0.17857 2:0.17609 3:-1 4:-1 5:-1 6:-1 7:-1 8:-1 9:-1 10:-1 
-1 1:-0.019257 2:-0.07286 3:-1 4:-1 5:-1 6:-1 7:-1 8:-1 9:-1 10:-1 
-0.5719396939369669 1:-0.6 2:-0.5405 3:-1 4:-1 5:-1 6:-1 7:-1 8:-1 9:-1 10:-1 
-1 1:-0.31564 2:-0.35453 3:-0.981 4:-1 5:-1 6:-1 7:-1 8:-1 9:-1 10:-1 
-1 1:0.044014 2:0.057458 3:-1 4:-1 5:-1 6:-1 7:-1 8:-1 9:-1 10:-1 
-1 1:-0.028757 2:-0.11288 3:-0.987 4:-0.99104 5:-1 6:-1 7:-1 8:-1 9:-0.99309 10:-1 
-1 1:0.71429 2:0.76369 3:-1 4:-1 5:-0.92044 6:-1 7:-1 8:-1 9:-1 10:-1 
-0.9450948135211167 1:0.57143 2:0.76369 3:-1 4:-1 5:-1 6:-1 7:-1 8:-1 9:-1 10:-1 
-1 1:0.11246 2:0.056318 3:-1 4:-1 5:-1 6:-1 7:-1 8:-1 9:-1 10:-1 
-0.2720702346130325 1:-0.38249 2:-0.44727 3:-1 4:-1 5:-1 6:-1 7:-1 8:-1 9:-1 10:-1 
-0.02940243243340975 1:0.28571 2:0.75451 3:-1 4:-1 5:-1 6:-1 7:-1 8:-1 9:-1 10:-1 
-1 1:-0.023814 2:0.18188 3:-1 4:-1 5:-1 6:-1 7:-1 8:-1 9:-1 10:-1 
-1 1:-0.11226 2:-0.020075 3:-1 4:-1 5:-1 6:-1 7:-1 8:-1 9:-1 10:-1 
-0.1178398154906079 1:-0.55357 2:-0.33216 3:-1 4:-1 5:-1 6:-1 7:-1 8:-1 9:-1 10:-1 
-1 1:-0.40953 2:-0.46447 3:-1 4:-1 5:-1 6:-1 7:-1 8:-1 9:-1 10:-1 
-0.07074137423589669 1:-0.37143 2:-0.19842 3:-1 4:-1 5:-1 6:-1 7:-1 8:-1 9:-1 10:-1 
-1 1:-0.22133 2:-0.13554 3:-1 4:-1 5:-1 6:-1 7:-1 8:-1 9:-1 10:-1 
-1 1:0 2:0.20946 3:-1 4:-1 5:-1 6:-1 7:-1 8:-1 9:-1 10:-1 
-1 1:0.032957 2:-0.011153 3:-1 4:-1 5:-1 6:-1 7:-1 8:-1 9:-1 10:-1 
-1 1:0.099386 2:0.12473 3:-1 4:-1 5:-1 6:-1 7:-1 8:-1 9:-1 10:-1 
-1 1:0.049114 2:0.11451 3:-1 4:-1 5:-1 6:-1 7:-1 8:-1 9:-1 10:-1 
-1 1:0.28571 2:0.31266 3:-1 4:-1 5:-1 6:-1 7:-1 8:-1 9:-1 10:-1 
-1 1:0.11687 2:0.29266 3:-1 4:-1 5:-1 6:-1 7:-1 8:-1 9:-1 10:-1 
-1 1:-0.071429 2:-0.056351 3:-1 4:-1 5:-1 6:-1 7:-1 8:-1 9:-1 10:-1 
-1 1:-0.25714 2:-0.10679 3:-1 4:-1 5:-0.11111 6:-1 7:-1 8:-1 9:-1 10:-1 
-1 1:-0.28571 2:-0.071134 3:-1 4:-1 5:-1 6:-1 7:-1 8:-1 9:-1 10:-1 
-1 1:-0.2437 2:-0.1318 3:-1 4:-1 5:-1 6:-1 7:-1 8:-1 9:-1 10:-1 
-0.9165803700060877 1:0.55077 2:0.71846 3:-1 4:-1 5:-1 6:-1 7:-1 8:-1 9:-1 10:-1 
-1 1:-0.64966 2:-0.73923 3:-1 4:-1 5:-1 6:-1 7:-1 8:-1 9:-1 10:-1 
-1 1:-0.38656 2:-0.32467 3:-1 4:-1 5:-1 6:-1 7:-1 8:-1 9:-1 10:-1 
-1 1:-0.20346 2:-0.25433 3:-1 4:-1 5:-1 6:-1 7:-1 8:-1 9:-1 10:-1 
-1 1:0.10714 2:0.25574 3:-1 4:-1 5:-1 6:-1 7:-1 8:-1 9:-1 10:-1 
-1 1:0.48163 2:0.60638 3:-1 4:-1 5:-1 6:-1 7:-1 8:-1 9:-1 10:-1 
-1 1:0 2:0.30478 3:-1 4:-1 5:-1 6:-1 7:-1 8:-1 9:-1 10:-1 
-1 1:-0.39409 2:-0.4025 3:-1 4:-1 5:-1 6:-1 7:-1 8:-1 9:-1 10:-1 
-1 1:-0.14286 2:-0.090216 3:-1 4:-1 5:-1 6:-1 7:-1 8:-1 9:-1 10:-1 
-0.7596503532075773 1:-0.16071 2:-0.064166 3:-1 4:-1 5:-1 6:-1 7:-0.66303 8:-1 9:-1 10:-1 
-1 1:0.23616 2:0.25886 3:-1 4:-1 5:-1 6:-1 7:-1 8:-1 9:-1 10:-1 
-1 1:-0.7062 2:-0.8407 3:-1 4:-1 5:-1 6:-1 7:-1 8:-1 9:-1 10:-1 
-1 1:0.63787 2:0.71348 3:-1 4:-1 5:-1 6:-1 7:-1 8:-1 9:-1 10:-1 
-1 1:0.71429 2:0.82634 3:-1 4:-1 5:-1 6:-1 7:-0.907 8:-1 9:-1 10:-1 
-1 1:-0.11246 2:-0.13848 3:-1 4:-1 5:-1 6:-1 7:-1 8:-1 9:-1 10:-1 
-1 1:-0.3101 2:-0.325 3:-1 4:-1 5:-1 6:-1 7:-1 8:-1 9:-1 10:-1 
-1 1:0.67756 2:0.71696 3:-1 4:-1 5:-1 6:-1 7:-1 8:-1 9:-1 10:-1 
-0.529075066262965 1:0.57143 2:0.76369 3:-1 4:-1 5:-1 6:-1 7:-1 8:-1 9:-1 10:-1 
-1 1:-0.1118 2:-0.064166 3:-1 4:-1 5:-1 6:-1 7:-1 8:-1 9:-1 10:-1 
-0.908477845477695 1:0.5034 2:0.64744 3:-1 4:-1 5:-1 6:-1 7:-1 8:-1 9:-1 10:-1 
-1 1:-0.098214 2:-0.049545 3:-1 4:-1 5:-1 6:-1 7:-1 8:-1 9:-1 10:-1 
-0.4631996992455075 1:0.42857 2:0.76369 3:-1 4:-1 5:-1 6:-1 7:-1 8:-1 9:-1 10:-1 
-1 1:0.28571 2:0.34483 3:-1 4:-1 5:-1 6:-1 7:-1 8:-1 9:-1 10:-1 
-1 1:0.13501 2:0.060095 3:-1 4:-1 5:-1 6:-1 7:-1 8:-1 9:-1 10:-1 
-1 1:-0.0376 2:0.2105 3:-1 4:-1 5:-1 6:-1 7:-1 8:-1 9:-1 10:-1 
-1 1:-0.14763 2:-0.091649 3:-1 4:-1 5:-1 6:-1 7:-1 8:-1 9:-1 10:-1 
-0.01802937206270325 1:0.004886 2:0.008841 3:-1 4:-0.36721 5:-1 6:-1 7:-1 8:-1 9:-1 10:-1 
-1 1:0 2:-0.026588 3:-1 4:-1 5:-1 6:-1 7:-1 8:-1 9:-0.96695 10:-1 
-0.5569356775832576 1:0.3871 2:0.66952 3:-1 4:-1 5:-1 6:-1 7:-1 8:-1 9:-1 10:-1 
-1 1:0.14286 2:0.34483 3:-1 4:-1 5:-1 6:-1 7:-1 8:-1 9:-1 10:-1 
-1 1:-0.40093 2:-0.41357 3:-1 4:-1 5:-1 6:-1 7:-1 8:-1 9:-1 10:-1 
-1 1:-0.3354 2:-0.32115 3:-1 4:-1 5:-1 6:-1 7:-1 8:-1 9:-1 10:-1 
-1 1:-0.37363 2:-0.42995 3:-1 4:-1 5:-1 6:-1 7:-1 8:-1 9:-1 10:-1 
-1 1:-0.38199 2:-0.47485 3:-1 4:-1 5:-1 6:-1 7:-1 8:-1 9:-1 10:-1 
-0.1267935301335275 1:0.33689 2:0.21803 3:-1 4:-1 5:-1 6:-1 7:-1 8:-1 9:-1 10:-1 
-1 1:0.10917 2:0.14434 3:-1 4:-1 5:-1 6:-1 7:-1 8:-1 9:-1 10:-1 
-0.6805479852902464 1:0.70671 2:0.74998 3:-1 4:-1 5:-0.964 6:-1 7:-1 8:-1 9:-1 10:-1 
-1 1:-0.17857 2:-0.15726 3:-1 4:-1 5:-1 6:-1 7:-1 8:-1 9:-1 10:-1 
-1 1:-0.20481 2:-0.20901 3:-1 4:-1 5:-1 6:-1 7:-1 8:-1 9:-1 10:-1 
-1 1:0.12894 2:0.18703 3:-1 4:-1 5:-1 6:-1 7:-1 8:-1 9:-1 10:-1 
-0.2340008578722334 1:-0.3917 2:-0.44779 3:-1 4:-1 5:-1 6:-1 7:-1 8:-1 9:-1 10:-1 
-1 1:0.28571 2:0.42865 3:-1 4:-1 5:-1 6:-1 7:-1 8:-1 9:-1 10:-1 
-0.1565030490982902 1:0.14286 2:0.31266 3:1 4:-1 5:-1 6:-1 7:-1 8:-1 9:-1 10:-1 
-1 1:-0.20599 2:-0.29582 3:-1 4:-1 5:-1 6:-1 7:-1 8:-1 9:-1 10:-1 
-1 1:0 2:0.1007 3:-1 4:-1 5:-1 6:-1 7:-1 8:-1 9:-1 10:-1 
-0.07901121227625438 1:-0.25 2:-0.029616 3:-1 4:0.39997 5:-1 6:-1 7:-1 8:-1 9:-1 10:-1 
-1 1:-0.22286 2:-0.22233 3:-1 4:-1 5:-1 6:-1 7:-1 8:-1 9:-1 10:-1 
-0.5576060688340461 1:-0.009986 2:-0.11842 3:-1 4:-0.96976 5:-1 6:-1 7:-0.99515 8:-1 9:-0.99222 10:-1 
-1 1:-0.035043 2:0.021736 3:-1 4:-1 5:-1 6:-1 7:-1 8:-1 9:-1 10:-1 
-0.5445858677572211 1:-0.073386 2:-0.11164 3:-1 4:-0.52065 5:-1 6:-1 7:-1 8:-1 9:-1 10:-1 
-1 1:-0.13824 2:-0.041209 3:-1 4:-1 5:-1 6:-1 7:-1 8:-1 9:-1 10:-1 
-1 1:0.077214 2:0.12695 3:-1 4:-1 5:-1 6:-1 7:-1 8:-1 9:-1 10:-1 
-1 1:0.21211 2:0.22614 3:-1 4:-0.91516 5:-1 6:-1 7:-1 8:-1 9:-1 10:-1 
